1729 100
CAG 0.2247003 -0.03908616 0.49773443 -0.29103595 -0.16958852 -0.5360647 0.4835131 -0.002779922 -0.049245954 -0.062962204 -0.17499463 0.17882511 -0.15074573 0.09279873 0.249797 -0.074463144 0.29307976 -0.18846335 -0.22408582 -0.13804117 0.3267069 0.6954776 -0.45029506 0.019871157 0.15837924 0.05869987 -0.15919098 0.026355686 -0.28709772 0.2743111 -0.20764866 -0.36407372 0.1770523 0.2674775 -0.18884444 -0.17620082 0.1068563 0.045995966 -0.19700038 0.1480368 -0.4606316 0.019799042 0.0045654136 -0.10744759 -0.148132 0.039492637 0.04026749 0.32755497 0.06662711 0.40349635 0.25785542 0.15126781 -0.23423013 -0.008481535 0.4337671 -0.27028322 0.119138025 -0.49699405 0.21816681 0.035490144 0.23139152 0.19115815 0.034439266 0.08603257 0.28552222 -0.17821766 -0.31229314 -0.301918 0.21449138 -0.032379042 0.045176715 -0.076310754 -0.23722526 -0.057305157 -0.12243382 0.2656386 -0.07464656 -0.18765654 0.04930062 -0.40096644 0.0070897574 0.25431255 0.20475617 0.1532297 0.22667746 0.17842595 -0.2272764 -0.084054075 -0.41020164 -0.14397353 0.39447695 -0.0113604665 0.24490021 0.16703069 -0.38109297 0.18011864 0.1828025 -0.096202664 -0.04078542 -0.21420106
ACA 0.65826523 0.026907114 0.43756378 -0.57000864 -0.49491736 -0.281236 0.48256543 -0.17810106 -0.5257788 0.22361948 -0.50857204 -0.021556256 -0.027605131 -0.41006374 -0.0460283 -0.04091264 0.119369544 -0.10696435 -0.3352016 0.13276584 0.056297272 0.6180596 0.07282746 -0.27298182 0.25549367 0.16780163 0.15652832 0.14884534 -0.19060494 -0.26605186 0.2425727 -0.5908388 -0.032453805 -0.02523365 -0.04064434 -0.043430824 0.09286557 0.24413036 0.079020254 0.18823515 -0.1392305 0.14751191 -0.006402415 0.20848998 0.07455616 0.2018717 0.15954271 -0.035902623 0.09229971 -0.13835452 0.10741433 -0.026751705 -0.3702098 0.42468762 0.23771527 -0.2640908 -0.1867747 -0.4063875 0.11475751 -0.083948985 0.21043146 0.26714498 -0.039553255 -0.035598878 0.026832158 -0.3089821 -0.19272725 -0.1683428 -0.35632226 0.12462215 0.16348593 0.13900566 -0.14958741 0.18234342 0.23248954 0.042960502 0.25430378 -0.013879709 -0.16550846 0.49836075 0.39875498 0.36828095 0.42786905 0.13088427 0.26410496 -0.19894238 0.23689468 0.2491151 -0.15683465 0.15446119 -0.050137226 -0.11636461 -0.0034090106 0.16421738 0.1044598 -0.3537336 -0.017455013 0.24138348 -0.118811466 0.060072914
CAA 0.46530315 0.37712118 0.25104117 -0.4648434 0.08618045 -0.21574742 0.100457676 0.021387061 0.14027832 0.036388453 0.02351553 -0.16892473 -0.3670531 -0.15032083 0.033502173 -0.24177618 0.565058 -0.013228751 0.018876614 0.07957778 0.15178128 0.5626379 0.11956931 -0.44244882 0.37898928 -0.3848961 0.056208927 -0.1380001 -0.029285222 0.0247327 0.1656564 -0.6654075 -0.19313481 0.11178051 0.092019625 -0.048324484 -0.024289839 0.29850918 0.02680359 -0.190293 0.12450815 0.14838101 0.07625604 0.22510205 -0.09176085 0.25879213 0.18647575 -0.16739333 0.1921955 0.4100394 0.20005281 0.49624857 -0.08068737 0.47717127 0.119660914 -0.26626173 0.1643097 0.33970994 0.14505899 -0.38495994 0.19327347 0.058011293 0.024061564 -0.009264382 -0.040618233 0.08092404 0.008504646 0.13905217 0.105422124 0.2829396 0.37165007 -0.17687558 -0.13009273 0.4394647 0.10223734 0.050419595 0.20500092 0.45629925 0.1278568 -0.22817439 -0.1827227 0.28384542 0.3688672 0.39441732 0.44766566 -0.0775402 0.15646441 -0.15735763 -0.34362605 -0.22739808 0.20238234 0.35953704 -0.48292413 0.5811089 0.6392038 0.12192097 -0.23731497 0.006551668 0.06840118 0.033515725
AGA 0.13801111 0.4842222 0.06740955 -0.041552965 0.19540407 -0.5198253 0.87365323 -0.1918202 0.11896876 0.14065297 -0.23251775 0.16298698 -0.028509695 -0.2887261 0.18964575 0.38836318 0.13221738 0.2133145 -0.110386975 -0.12702118 -0.09731663 0.12834744 -0.32131946 -0.095901065 0.16507016 0.0045514153 -0.44484344 -0.1612692 -0.29860267 -0.12099564 -0.11950462 -0.44207177 -0.0071729384 0.33518478 -0.007264928 0.4129137 -0.27110833 0.08248141 0.050181143 0.16862133 -0.047071453 0.36495835 0.054385703 0.2894942 -0.11327455 0.23901032 0.22583576 0.112135015 -0.049609028 0.27953044 0.052672043 0.2407265 0.09097983 0.5164926 0.06638065 -0.4648826 0.0049163857 -0.21717452 0.016658945 -0.17461428 0.030367704 0.29958877 0.0723279 -0.07716856 -0.28205833 -0.27231467 -0.3335771 -0.3255454 -0.18587655 0.3211273 0.35891947 0.008627815 -0.056419935 0.3824974 -0.06728556 0.31990698 0.19588137 0.010304158 -0.5362378 0.088218264 -0.04604259 -0.00063253264 0.102581136 0.08049236 0.22456445 0.1684146 0.41894054 -0.51486886 -0.2476346 0.015337494 0.18023452 -0.014955962 0.03940004 0.18655196 -0.097711064 0.17007737 0.043433286 0.09399671 -0.00401855 -0.22488953
CCA 0.26410538 0.27682835 0.19168322 -0.26490882 -0.2863898 -0.19585888 0.36648422 0.20503682 -0.109028324 0.30681103 -0.18448348 -0.4042146 0.1508073 -0.28886554 -0.022205105 -0.08811113 0.3153472 0.048437443 -0.14149927 -0.11115366 0.19795801 0.2443979 0.15509146 -0.17412695 0.78661436 0.15021552 -0.039131146 0.3336147 -0.3047032 -0.4863825 0.35045323 -0.47457525 0.03300255 -0.05228451 0.23193341 0.037866816 -0.05430879 -0.0034324746 0.08638418 0.28069058 -0.12954104 0.027526857 -0.17108046 0.14538772 0.18698879 0.0053123534 -0.055205315 -0.42847475 0.32392728 0.25478604 0.2248386 0.2292324 -0.18109062 0.17793967 0.5024166 -0.34016797 -0.18294024 -0.18551476 0.17812826 0.115488514 0.3627656 0.35522473 0.1616266 0.028197523 0.47558227 0.06937507 -0.16890791 -0.2775267 -0.2010807 -0.24807063 0.4005246 0.14966036 0.14564809 0.08984764 -0.047601987 0.23345591 -0.09085379 -0.09241364 0.097389355 0.43097878 0.09361665 0.046289816 0.37527484 -0.034257073 -0.10653322 -0.13603199 0.23226853 -0.057753213 -0.37767687 -0.041274283 -0.064674534 -0.019083232 0.30207458 0.2563094 0.08535428 -0.4931659 0.14681944 -0.48123488 0.2256209 0.013263258
AGG -0.0014232947 0.09910543 0.15851487 -0.45722237 -0.033675164 -0.62459564 0.2779678 0.06094535 0.16052717 -0.11935457 0.10350135 0.50751525 -0.18907061 -0.17378604 0.019029958 -0.07951277 -0.119607605 -0.059453834 -0.4567905 0.14168999 0.3567778 0.38748518 0.15004672 -0.42034322 0.38142422 0.27810434 -0.36467275 -0.12522943 -0.0046510664 -0.057537016 -0.11696653 -0.6778876 0.14209759 0.29475018 0.09400029 0.39792028 0.11584554 0.0155343255 0.36107633 -0.049537424 -0.5754987 0.045881424 0.24495322 0.21030712 -0.21976326 0.17247428 0.087147415 -0.37105945 0.32934454 0.07904108 -0.02666184 0.034825176 -0.12115587 -0.21888438 0.20729113 0.07419447 -0.5640094 0.1518051 -0.10110182 0.2543193 0.40545148 0.18655795 0.3125164 -0.07640606 -0.0011846786 -0.26882944 -0.33673373 0.0032032183 0.010094179 0.11655506 0.37179902 -0.050015233 -0.08707782 0.027024578 0.089411765 -0.42085966 0.4291527 -0.3836592 -0.24713129 -0.29115745 0.13227257 0.31841838 0.13433471 -0.3416291 0.057789143 0.03062725 -0.12380455 -0.40252277 0.012550637 0.17372014 0.12272335 0.08388324 -0.044756535 0.043558605 -0.0353629 0.113399394 -0.118353985 -0.021181563 0.045570724 -0.243167
GAG 0.25263003 0.43125322 0.15874003 -0.07141412 -0.2585283 -0.4829893 0.5443829 -0.064500995 0.14555368 -0.26586878 0.07269057 0.16532616 -0.036846522 0.25400245 0.12263789 0.049065985 -0.14749774 0.06816079 -0.20961766 0.04716657 -0.085034676 0.60506445 -0.44169116 -0.034081213 0.025248833 -0.049413893 -0.1279455 -0.19367407 -0.26501718 0.18034703 0.011098387 -0.62922025 0.2286588 0.39167452 0.092422016 0.046955623 -0.1600426 0.19044672 0.23268256 -0.05869534 -0.5325717 -0.07125483 0.4593431 -0.19742534 0.33428973 0.18076807 -0.123318635 -0.09680563 0.044942304 0.0034918867 0.2927081 0.026153447 -0.44293246 0.12664504 0.1789821 -0.39565566 0.003494245 -0.21024126 0.3411327 -0.00736949 0.06975267 -0.0124242995 -0.2051664 -0.08570581 0.13516164 0.031380136 -0.048098236 -0.08616836 0.18303934 0.012478553 0.5173936 -0.086743906 -0.15400104 -0.016201045 0.27990374 0.00602723 0.20146783 -0.19373433 -0.24075542 -0.18747501 -0.114573196 0.10744277 0.25806284 0.08359413 0.30637035 0.08658207 -0.061993666 -0.43145746 -0.28931075 0.16149093 0.19666326 -0.13412185 -0.10899809 0.42798743 -0.19974029 -0.00084791664 0.16046853 -0.051437788 -0.0598393 -0.3294126
GCA 0.27428064 0.12832065 0.39675042 0.11200036 -0.5211909 0.013929471 0.37528893 0.012997594 -0.6681832 0.1119253 -0.5756536 0.10191567 0.006250534 -0.3809021 0.12688643 0.16719486 0.14528695 -0.24450359 -0.30653095 -0.13312086 -0.03936228 0.543083 -0.17482203 -0.12923469 0.2847321 -0.059584923 -0.45517358 0.06871107 -0.19300902 -0.23767014 0.47505772 -0.020324623 0.18187423 0.24787122 -0.17313248 0.0021815752 0.18276437 -0.043842632 0.08104816 0.3606939 -0.19283575 0.15563342 -0.13837503 0.3102237 -0.12002153 0.000490072 0.36048564 -0.14075793 0.087997064 0.1937278 0.10975217 -0.1261721 -0.16240351 -0.11625866 0.32005394 -0.0748256 -0.25538263 -0.06171216 0.2062423 0.14199078 0.35436615 0.3464741 -0.16082416 -0.048336662 0.3471013 0.032148182 -0.22631218 -0.14932585 -0.18977426 0.23476984 0.34492132 0.05135554 0.2363317 0.18055685 -0.11765803 -0.059311997 0.2317653 0.43057087 -0.16592766 0.09785107 -0.12114657 0.03587185 0.109570034 -0.20684795 0.27833763 0.14817142 0.25121355 -0.33817545 -0.021234296 -0.22960481 -0.052328646 -0.12798111 0.116581805 0.4742703 -0.14097172 -0.19267805 0.02474426 0.042627964 0.2724462 -0.22805183
AAG 0.72631687 0.34440863 0.20761934 -0.13151439 -0.20184958 -0.3782925 0.5290252 0.105845325 0.17805487 -0.15996046 -0.12368893 0.19408095 0.004774954 0.3083042 0.3896448 -0.22847894 0.26739922 -0.17180873 -0.2406529 0.14349933 -0.11078508 0.3764568 -0.41335547 -0.23928072 0.1833055 0.115352124 -0.35823104 0.23299596 -0.24148713 0.257606 -0.008488006 -0.6470176 0.21928687 0.072016716 0.44151524 -0.041436005 -0.10304099 0.06837064 0.121607035 0.42054152 -0.3621556 0.36579072 0.51455456 -0.10112598 -0.06671668 0.2501771 0.13691676 -0.1526932 0.06858135 0.07032824 0.32561943 0.29304218 -0.18987869 -0.09559613 0.018985562 -0.36417282 0.18270989 -0.29158503 0.05565535 -0.1978579 0.20716156 0.44463685 -0.12519513 0.11526448 0.18980236 -0.069903366 -0.13077207 -0.042184055 0.015337268 0.09344657 0.34263572 -0.044108555 0.14266016 0.26556063 -0.28588864 -0.19122888 0.16572374 0.14007829 -0.25888133 0.22653829 0.32392898 0.26389986 -0.11427758 0.41055042 0.2857407 0.004059409 0.1540625 -0.19165409 -0.00034466432 -0.19406004 -0.043464847 0.0761435 -0.07986209 0.1704455 -0.15586944 0.15707387 -0.3188556 -0.06425436 -0.17546505 -0.21639708
AAA 0.24096666 0.64980716 0.13563637 -0.07233445 0.1590518 -0.21411231 0.2991503 0.13054265 -0.18036886 0.28957653 -0.1832527 -0.26387697 -0.23657374 -0.14938168 0.09308466 -0.13620551 0.19161162 0.07326441 0.14458549 0.049427103 -0.04362496 0.5018173 0.059328105 -0.5491978 0.11141589 -0.061583005 0.035034426 -0.19633572 -0.13310012 0.085335754 0.03978992 -0.47408184 -0.048053388 0.3801429 0.026897522 -0.15642004 -0.21957207 0.26617458 0.31148377 0.23341353 -0.08884196 -0.008467634 0.000120912264 -0.00015607517 -0.042513806 -0.19977334 0.588142 -0.22369969 0.1438502 0.025327256 0.13374788 0.21957508 -0.055557214 0.39170426 0.4828792 -0.09471672 0.086393274 -0.016911129 -0.08719765 -0.17772135 0.43313298 0.23895818 -0.15284291 0.0059641623 0.058983978 0.21026227 0.059960168 -0.21149114 -0.09821457 0.21031916 0.3664144 0.14995492 -0.32627556 0.07607927 -0.23622523 0.2606311 0.39870858 0.1282608 0.19562972 0.041081976 0.5501901 0.60138136 0.19576657 0.23321259 0.4528335 -0.29393914 0.3620271 -0.2614664 -0.17715065 -0.50119025 0.40013018 0.20419417 -0.05417092 0.16776204 0.16487373 0.0793627 0.22637877 0.28459382 0.15079926 0.13163699
GAA -0.06273139 0.40774545 -0.18428318 -0.67584085 -0.31941938 -0.48286492 0.46456736 0.345327 -0.2250205 0.19650276 -0.37798598 0.17610742 -0.2956291 -0.14676553 0.11996081 0.16978846 0.16478041 0.09246961 -0.059782382 -0.2701717 0.021444531 0.44247538 -0.23220566 0.12740329 0.16784213 0.06753694 -0.18072419 -0.15604377 -0.37250358 -0.029123528 -0.018242208 -0.15579052 -0.123426884 0.27293786 -0.25655183 -0.5696974 -0.10496464 -0.011554276 0.36268064 0.39847657 0.015150006 0.098660804 0.3568046 0.1148653 0.023237918 0.2817227 -0.03457208 -0.3739658 0.19319049 -0.067254186 -0.053594694 0.30429122 -0.029722063 0.3979163 0.07514969 -0.020631425 -0.34490654 0.093700394 -0.34230915 -0.046296977 0.19623461 0.04327947 -0.12137971 -0.004325547 -0.043318436 0.07962164 -0.00800538 0.015467333 -0.13018088 0.112719536 0.42171243 -0.5774791 -0.13938595 0.1443756 -0.124578975 0.22023791 0.08218029 0.13840652 0.042528324 0.00481922 0.25303453 0.5994791 0.40430227 0.3332549 0.6526019 -0.11790789 -0.21077791 -0.1870119 -0.28374296 -0.10997246 0.27394408 -0.029981486 -0.03043237 0.5777469 0.4745528 -0.09883097 -0.39427587 0.013575387 -0.14390565 -0.29221252
GGA -0.24507211 0.29800597 0.24982849 -0.48282883 0.037938174 -0.6504391 0.43959877 0.11685043 -0.011488595 0.43310773 -0.3096612 -0.040421497 -0.18242423 0.04542616 0.061749335 -0.21610628 0.13022687 0.282923 -0.316717 0.048664596 -0.21970879 0.3720487 -0.37611943 -0.4183578 0.34846243 0.24827348 -0.30746755 -0.18289092 -0.13154411 0.2171012 -0.11413031 -0.24672037 -0.17245573 0.16682298 0.19914095 0.3243396 0.027951654 0.038504858 -0.02481548 -0.113468006 -0.15072994 0.11044211 0.41505018 -0.015237077 -0.23937914 0.4430177 0.2285899 -0.0022227718 0.3204887 0.11385116 0.5469388 0.06301225 0.14429785 0.28135788 0.5758248 -0.21693157 -0.16295049 -0.36944023 0.14951277 -0.15965243 0.005211161 0.004467078 -0.03548341 -0.11003254 -0.16198537 0.11682889 -0.0020178114 -0.21791716 -0.45945007 0.09821886 0.25187597 -0.2184799 -0.18996523 0.10134266 -0.26609653 -0.03043781 0.09354932 -0.122486115 -0.39796138 -0.24984978 0.17917192 0.445492 -0.045618266 -0.23303965 -0.07297856 -0.15150914 -0.14831583 -0.20559984 -0.2144698 -0.05289161 -0.20486285 -0.3206103 0.04237227 0.3921324 -0.1875414 0.4976877 0.29536033 -0.17029381 -0.18165526 0.010267846
CAC 0.25058037 0.24698508 0.42374882 -0.34176874 -0.24278204 -0.074044324 0.5217331 -0.41214302 -0.44207218 0.38364422 0.100016885 0.45369428 -0.24092013 -0.19937275 -0.13681641 -0.06689147 0.11356174 -0.31558883 -0.1652225 0.45717475 -0.0034468542 0.44215283 -0.01975814 -0.25034198 0.2392037 0.12496073 0.04222407 0.25036258 -0.22460288 -0.2908305 0.2175105 -0.34921995 0.05557454 -0.3618811 0.1159228 -0.28480813 0.008484756 0.27377594 0.043555785 0.42086384 0.09399049 0.32956642 0.06808587 0.3817171 0.049928002 -0.0724827 0.2765345 -0.10987065 0.31857747 -0.20496957 -0.3545854 0.32462907 -0.18321028 0.008638866 0.3411208 -0.44197357 -0.21552609 -0.10326001 0.2449547 0.11183686 -0.10388085 -0.32282946 -0.21882501 0.53360295 0.3134445 0.08899945 0.2769571 -0.1731753 -0.22758244 -7.106645e-05 0.53122675 0.14543678 -0.4668638 0.3231141 0.041669138 0.25148332 -0.30896702 -0.45447406 0.096704096 -0.2252936 -0.2055705 -0.06894861 0.07452852 0.04238372 -0.18744063 0.036909256 0.34538284 0.13583171 -0.3752691 -0.012673142 0.05688855 0.0006161319 0.10853041 0.08794974 0.16006131 0.15896216 -0.14303915 0.3245975 -0.18372135 -0.04917419
GGG 0.07449009 -0.011514481 -0.030866332 0.11883902 -0.084578104 -0.7399769 0.35427213 -0.17431326 0.044097487 -0.0338345 0.11825772 -0.1457306 0.069320954 -0.2289954 0.28457186 -0.18156713 0.08981993 0.019567985 -0.25426126 -0.3402896 0.0037166392 0.33055604 -0.14043395 -0.16504435 0.3445133 0.108425766 -0.61879575 -0.4079585 0.079148635 0.24303746 -0.24876593 -0.42233083 0.45935038 0.018169506 0.08643076 0.058030024 0.16001487 -0.059141763 0.3450966 -0.011352437 -0.5008611 0.20647126 0.36945742 0.0680677 0.08610169 0.14360246 0.22614916 0.026610184 0.34952527 -0.11667261 -0.20868133 -0.16854022 0.14002647 0.04587373 0.16457106 -0.19050114 -0.4331529 -0.20371164 0.3150265 -0.121291175 0.26175886 0.38116893 0.16840705 -0.03770547 -0.13105166 -0.10680108 -0.67655796 -0.08413599 -0.1965674 0.010315475 0.21360996 -0.29853266 -0.23970251 -0.1476195 0.048575792 -0.5301475 0.14868182 -0.30941063 -0.14150515 -0.46526134 -0.17424412 0.4479681 0.16779059 0.06314602 0.26461476 0.042114962 -0.2836796 -0.39933962 -0.058975358 -0.030077761 0.07587 0.11855723 -0.08929476 -0.00034052774 -0.07883744 0.016959954 -0.29807517 0.15003209 -0.083878845 0.01695487
AGC 0.12999654 0.35231495 -0.32870924 -0.22356334 -0.037048094 -0.45478025 0.4114788 -0.08840245 0.009982687 0.14404361 -0.15610349 0.27191457 -0.27062067 0.12657826 0.12997884 -0.10663653 0.5419167 0.056514114 0.11534769 0.24672708 -0.05453167 0.074636914 -0.016070317 -0.27900365 0.4001404 0.08002979 -0.081812635 -0.031565923 -0.3856946 0.21584804 0.18395503 -0.36576757 0.0075748567 -0.051185507 -0.27783412 0.11642431 0.39174414 -0.27470735 0.17585874 0.2460227 -0.4573052 -0.083363876 -0.14134099 0.3418765 0.03412904 -0.07209205 -0.08448515 0.27152264 -0.034555204 0.36637396 -0.16008379 3.511824e-05 -0.046817854 0.09573947 0.55180603 -0.041415654 0.013647271 -0.23870558 0.61985606 0.018486781 0.10267214 0.07047572 -0.15867221 0.2174314 0.54014826 -0.31493276 0.05082204 0.102217175 0.14299111 -0.057336245 0.3937699 -0.6844286 0.05717187 0.4027091 -0.08248209 -0.0106849875 -0.24167013 0.015181299 -0.034519624 -0.13933697 0.37264156 0.04391512 0.37220868 -0.17187878 0.36450663 0.00010965713 -0.1226277 0.02227551 -0.22975287 0.08618679 0.034384593 0.1644415 -0.39891484 0.007742663 -0.16376264 -0.29565918 0.19888875 0.014951584 -0.0034664928 -0.17354947
AAC 0.010307008 0.4236982 0.50045764 -0.13314518 -0.04582319 -0.22056615 0.43866348 0.040118933 -0.48550865 0.14868373 -0.1883885 0.02775624 -0.37776217 -0.5756117 -0.27505887 -0.18371655 0.32199857 -0.042230584 0.022329848 0.06138526 -0.10009403 0.14381237 -0.29202333 -0.110112704 0.47603232 0.029433021 -0.23759891 0.35156858 -0.35777906 -0.36475044 0.13602306 -0.30866084 -0.10354285 -0.12591286 0.28595924 -0.24454406 0.40402493 0.29597288 0.097966865 0.24700965 0.14733134 0.06877319 0.04804313 -0.14816646 -0.15085167 -0.42527092 0.10997395 -0.23784262 -0.23477097 0.11162758 0.05244007 0.3684752 -0.06734681 0.3841343 0.3428593 -0.13425815 0.035289716 0.4271293 0.017778292 -0.15047964 0.07994571 -0.07441884 -0.027129423 0.44962922 -0.20650643 -0.32024506 -0.0076507796 -0.40501934 -0.31898767 -0.029909283 0.28647953 -0.08667425 -0.10676029 0.35004848 0.101535074 -0.15723445 -0.008542735 -0.5818668 0.31348217 -0.0034733904 0.16134273 0.16126737 0.11095445 0.19522955 0.11738703 0.046790782 0.27457312 -0.12614554 -0.2825212 -0.035488937 0.104527876 -0.541075 -0.099831216 0.37789717 -0.05189217 -0.22415505 -0.10263736 0.49477613 -0.0046686544 -0.23278752
ACC 0.39428008 0.24981949 0.27510205 -0.06302799 0.1359467 0.0063069016 0.32530004 -0.22454071 -0.39208934 -0.110347405 -0.40890187 -0.036893558 -0.44541785 -0.11786109 0.19468534 -0.08749291 0.21396454 0.17271848 -0.075468674 -0.0019392476 0.038681682 0.5938999 -0.25455537 -0.41171497 0.34226647 0.25317803 -0.03422688 0.029710095 -0.37556702 -0.12310427 0.1513579 0.02911855 -0.43030137 -0.00024546697 -0.144204 -0.04657842 -0.261978 -0.07424899 0.33666435 -0.06571948 0.0837299 0.31153232 -0.09858437 -0.12178703 -0.33431962 -0.51617914 -0.36668563 -0.15959968 0.02956106 0.1727372 0.04792264 0.5492455 -0.008225256 0.1262478 0.42628607 -0.48717988 0.07399375 -0.42133155 0.068797275 -0.16249652 0.27326322 -0.014612815 0.33251402 0.14998081 0.25093925 0.061812274 -0.30236453 0.4234034 0.06889914 -0.4655593 0.64469945 -0.24564575 -0.23700176 0.4005616 0.016745618 -0.100953914 -0.31152913 -0.16003889 0.040723186 0.3942455 -0.18801467 0.16731907 0.21201815 -0.10119068 -0.14245376 -0.23109898 0.46684754 -0.0161084 0.26963028 0.04048446 0.31766012 0.07775632 -0.25255802 -0.114847824 0.12237995 -0.20369151 0.20908338 -0.019130422 0.024699114 -0.13359416
CCC 0.3531648 0.3729783 0.4356329 -0.15470922 0.05786694 -0.053050205 0.38019297 0.022979844 -0.68359905 -0.3406569 0.079669625 -0.12907638 0.1283475 0.07859337 -0.033412624 -0.474279 -0.08162615 0.24455474 0.07392152 -0.18220307 0.07470655 0.2997436 0.05675178 -0.4079512 0.15424858 0.060628857 0.366308 -0.1845966 -0.57491463 -0.12697163 0.1065684 0.1501067 -0.14633222 -0.03673469 -0.06087819 -0.1478089 -0.1992469 -0.14858557 -0.22572213 0.019522816 -0.06670306 0.012920343 0.30081573 0.18364461 -0.17090008 -0.08832111 0.22644942 0.13549523 0.38311136 0.23545446 0.04598062 0.15974979 0.1632585 0.22907743 0.6925184 0.14506078 -0.012555112 0.06192537 -0.1443835 0.096974336 0.3348354 -0.037104864 0.024395581 0.42527956 0.42750993 -0.5793591 -0.04710199 0.3246553 0.26421613 -0.092356816 0.15426357 -0.025578301 -0.27578324 0.32888374 0.3878712 -0.09755154 -0.09763531 -0.1982734 0.0889682 -0.08507852 -0.11088304 0.43971592 0.1902943 -0.20117049 0.20010045 0.09531652 0.51304996 -0.04474899 -0.116212 0.014627171 0.1757953 0.020672733 -0.09696119 -0.18083726 0.014956083 -0.46935058 0.1226297 0.18031327 0.1520121 0.041065816
GCC 0.053951807 0.15872532 0.532656 -0.21923093 -0.44860688 0.11757432 0.30822018 -0.04765865 0.422738 -0.038488373 -0.25669226 -0.13714702 0.15556979 -0.120839894 -0.06388648 -0.43329874 0.18767919 0.27821705 -0.3677999 -0.0048531815 0.16314703 0.34004948 -0.011755656 0.14114006 0.18810445 0.12324825 0.11606152 -0.19740385 -0.60784614 -0.1376829 0.12906417 -0.10178815 -0.12324949 -0.044518426 -0.11923188 0.06452225 -0.18719038 -0.47358924 0.0905177 -0.05788477 -0.44668248 -0.16960311 0.4270208 -0.117844276 -0.13923332 -0.42208874 -0.0029953814 -0.2501028 0.3214798 0.040012818 -0.293247 0.4303427 -0.16000603 0.025042808 0.81790346 -0.07695636 0.14103462 0.066452526 -0.27376384 -0.1573236 -0.16556203 0.19510464 -0.117188215 -0.15096992 0.0021552502 -0.43195605 0.016224366 0.038491968 0.09778159 -0.26774326 0.6465974 0.2795178 -0.37875417 0.13783784 -0.17681798 -0.59556156 0.088935226 -0.1245418 -0.07267809 -0.192804 -0.26333877 0.18559356 -0.018420408 -0.3106147 -0.1460275 0.27501553 0.14992493 0.40896255 0.07309092 -0.1479931 -0.0071892496 0.031171307 -0.17245807 -0.11660431 0.2681615 -0.102198906 0.1792546 0.14474638 -0.12499273 -0.11146193
GAC 0.11789672 0.051956654 0.46365905 -0.066886544 -0.26382065 0.2259915 0.40034384 0.4292555 -0.3002514 0.39382726 -0.46056065 -0.30104375 -0.14624277 -0.114227116 0.16088128 -0.05402279 -0.01600371 0.2660223 0.12339472 0.10233526 0.123148955 0.16044804 -0.3559351 -0.056836683 0.34416702 0.14369886 -0.4756252 0.22558501 -0.34377924 -0.4279417 -0.34319255 -0.7296322 0.3273843 -0.07960131 -0.39878848 -0.09772239 0.011876772 0.5202004 0.44959605 0.2111721 -0.24502301 0.086763896 0.04561452 0.11977153 -0.07744583 0.04147798 0.22711499 0.03167548 0.04948728 -0.11952465 0.09629379 0.1585643 -0.40578014 -0.12523425 0.3821221 -0.3055669 -0.098917276 -0.23148558 0.33060062 0.30600384 0.13010563 -0.689785 -0.068506256 0.25523853 -0.02765667 -0.099264964 -0.13325089 -0.035573576 -0.01268112 -0.06315264 0.40819135 0.05773775 -0.14641565 0.41680038 0.10056054 0.12038908 0.12664434 -0.41109177 0.11457676 -0.12421284 -0.36788532 0.20234662 -0.3510027 0.01323795 -0.015222007 -0.19322954 -0.028902171 0.053945217 -0.1683764 -0.33070898 0.3165901 -0.35489577 -0.38421136 0.08915367 0.08091229 -0.18697931 -0.24306178 0.072031684 -0.34179002 0.16261701
GGC 0.088087104 0.09353646 0.055922132 0.032972533 -0.144631 -0.3366917 0.6523463 0.24222808 0.012552623 0.055217676 0.027035477 0.7058954 0.049264222 0.06539003 0.20819621 -0.011717735 0.008861061 -0.11792185 0.016260833 -0.56475365 0.032059047 -0.14789441 0.21725278 -0.36081824 0.3945447 -0.088825256 -0.021162208 -0.20880078 0.21880801 0.0026284633 -0.055927437 -0.32739672 -0.081567496 -0.04706947 0.27402285 0.43404114 0.0019933234 0.31809315 0.4219349 0.20927604 -0.21279594 -0.16721871 -0.13408567 0.2014742 -0.012828785 -0.10017885 -0.354267 0.06898973 0.335801 0.10655787 -0.09541355 -0.14573163 -0.3850219 0.04725714 0.46880284 -0.0070112008 -0.31374612 -0.075043745 0.5917938 0.23361751 0.12550761 0.32386306 -0.34326527 0.13094784 0.4786539 -0.32753566 -0.060667258 0.4937396 0.57433164 -0.09280369 0.1363405 -0.23514882 -0.1901949 0.066468924 0.05504093 -0.023790857 -0.30336878 0.0079426095 -0.30529934 0.20024712 0.003900952 0.5174307 0.029477896 -0.20959836 -0.04018343 0.397588 -0.11776296 0.24381584 -0.2324239 -0.26939794 0.036776226 -0.14994463 -0.18641558 0.18133505 -0.003344719 0.28021684 0.016472757 0.121627994 -0.22318242 0.02203492
ACAG 0.8774791 -0.070945665 0.6996719 -0.6242924 -0.5356098 -0.6063081 0.6088974 -0.34684086 -0.07162726 0.10120357 -0.53048265 0.19287576 0.050490215 -0.059151694 0.022401823 -0.11279767 -0.10693821 -0.19105998 -0.06300338 -0.13308285 -0.04653609 0.8035595 -0.09754715 -0.23739533 0.12523998 0.20987943 0.08005674 -0.10949585 -0.23836409 -0.11530845 0.086714074 -0.55398494 0.17398156 -0.13696432 -0.11479006 -0.0391678 0.3451046 0.24412811 0.17604968 0.32389182 -0.56552726 0.21584114 0.055895038 0.0105872955 0.18356733 0.08428445 -0.08963093 0.19262882 0.020304108 0.12097543 0.19380607 -0.07091968 -0.5355472 0.42152303 0.27493504 -0.116739035 -0.33097708 -0.4401061 0.20409963 -0.07234394 0.015537393 0.030778028 -0.14074314 -0.31171262 -0.03176234 -0.481056 -0.30980018 -0.21814786 -0.12483883 0.3427185 0.061173357 0.10513111 -0.03611821 0.1443485 0.32763642 0.29646295 0.11667956 -0.06751526 -0.25819212 0.24104775 0.28432673 0.6863567 0.88995135 0.07884292 0.24136749 -0.37943578 -0.087813385 0.3832185 -0.19503038 0.14533533 -0.09283296 -0.2017218 0.24698912 -0.000754124 -0.10455048 -0.5642178 -0.07890924 0.24993178 -0.16207446 0.019809537
CAAA 0.4774075 0.51738167 0.12123306 -0.3138261 0.02958533 -0.23542616 -0.09851684 0.2137149 0.004379845 -0.020836547 -0.29504037 -0.41754594 -0.118103206 -0.14758176 0.10321821 -0.31872797 0.3393503 0.018683927 0.28223535 0.01212942 0.14034222 0.6944417 0.16355266 -0.81750476 0.22875999 -0.24836338 -0.19624773 -0.24206792 -0.10699323 0.0013624756 0.16733153 -0.58942086 -0.08074848 -0.07824944 0.09204997 -0.12213559 0.14360043 0.18929096 0.006041569 0.053002898 0.05697729 0.2690535 0.032880574 0.10137467 -0.06063764 0.15397123 0.14821172 -0.2935771 0.2812239 0.31024528 -0.17543057 0.5622617 -0.10199904 0.6773599 0.292162 -0.2926955 0.21493341 0.48205954 -0.17583606 -0.14350075 0.19777322 0.060217574 0.11226425 -0.049807988 0.1575164 0.22422904 0.01635447 -0.03483321 0.051743247 0.29384938 0.2905685 -0.46007553 -0.30284822 0.3820843 0.18353297 -0.026362352 0.5126286 0.32537624 0.2634813 -0.34102076 0.04741187 0.42780164 0.3380835 0.22487968 0.47661394 -0.2966724 0.23911051 -0.35716078 -0.41164136 -0.25753164 0.5000638 0.58352673 -0.5777551 0.8170574 0.39069754 0.17187503 -0.124202885 -0.14077252 0.003893948 0.15120608
CGG -0.5218092 0.22147775 0.48291746 -0.1383685 0.033818413 -0.36215252 0.12627114 -0.1490756 0.204974 0.007206327 0.47686455 0.14804453 -0.3525714 -0.0760526 0.091586605 0.23953187 -0.20613874 0.036418423 -0.30576745 -0.3488686 0.14789745 0.3353684 -0.15401028 -0.114205174 0.4297756 -0.43704057 -0.32993904 -0.3121547 0.073965415 -0.14933056 0.25253677 -0.17048949 0.07257655 -0.11424699 0.051478323 0.081476666 0.15907224 0.67677546 0.20997526 -0.19219795 -0.2797614 -0.15407407 0.37847695 0.4293423 -0.36496586 -0.19768073 0.03186974 0.13952146 0.15923919 -0.053816788 0.30570248 -0.2531807 -0.117654994 0.06370719 0.6105612 -0.102255896 -0.49082103 -0.39750206 0.23908329 0.11725221 0.47233692 0.07314098 0.41781867 0.06425796 0.22249767 -0.31135958 -0.33706167 0.016231881 -0.12993675 0.04723683 -0.06304552 -0.18727906 -0.2183681 -0.006901793 -0.07725132 -0.118468575 0.26473758 0.036323626 -0.28973898 -0.08327427 -0.14023517 -0.04785002 -0.07792646 0.26768577 -0.21903104 -0.16299126 -0.15990524 0.0067726085 0.1608134 0.13328275 0.054988712 0.28646278 -0.18329874 -0.15155198 -0.20508459 0.25770465 -0.29020923 -0.107553996 -0.18883045 -0.5448114
CCG 0.097991474 0.2417749 0.05071317 -0.28995913 0.3816297 -0.72933596 0.27203164 -0.12001248 -0.086011395 -0.2365534 -0.48660347 -0.034216713 -0.27566153 -0.2624224 -0.25652072 0.1974324 -0.15731284 -0.24319452 -0.009513183 -0.06592062 0.10497236 0.2808132 0.0854879 -0.25235957 0.25568968 0.07160712 -0.20076004 -0.32969812 -0.071558364 -0.3379143 0.021222295 0.28210908 0.056984987 -0.4343544 -0.2018911 0.17418127 0.17541058 -0.2773334 0.032357857 0.026077533 -0.47995532 0.70328563 0.6090914 -0.40251672 0.27779707 0.02506054 0.2187818 -0.1505435 0.17491275 0.118293814 -0.15314294 -0.24140503 -0.111429684 -0.018727917 0.8253634 0.17371622 0.34052426 -0.18046084 -0.26909342 0.069438145 -0.3657767 -0.0055602216 -0.11277612 0.41997007 0.3912755 0.05587922 -0.12867996 0.40373793 0.2869554 -0.0858673 -0.03775996 -0.030038502 0.22341502 -0.3264079 0.12621552 -0.32904774 0.21488358 -0.13036664 -0.15412314 -0.3824208 -0.25494456 -0.17096113 -0.110439025 0.24253044 -0.07409491 0.17079644 0.1488465 0.15198484 -0.22885819 -0.07356204 0.24544433 -0.25716743 -0.291952 -0.16288458 -0.17057915 -0.012559952 0.016458357 0.299763 0.11659328 -0.12890537
CACA 0.5852626 0.015925579 0.44262466 -0.43088174 -0.5356325 -0.19915292 0.6625577 -0.16250864 -0.44518846 0.63167405 -0.049615033 0.2994111 -0.2475553 -0.3204388 0.09374959 -0.07533966 0.23685545 -0.42349014 0.096420825 0.46606362 -0.028986735 0.5806338 -0.26851746 -0.37995738 0.28208625 0.098152794 -0.12801182 0.22581133 -0.0065480103 -0.24459592 0.2516345 -0.6407871 0.24951674 -0.28123587 0.007349187 -0.28866753 0.12809293 0.40480587 0.3396919 0.35237497 -0.12628932 0.5390729 -0.15262474 0.6445916 0.021980507 -0.124649175 0.5315169 -0.15944877 0.2762405 0.22312193 -0.14871529 0.3751571 -0.39346293 0.21230084 0.13439897 -0.26984945 -0.32281744 -0.21297432 0.17151444 0.042144652 0.03781758 -0.07304947 -0.29370022 0.019650647 0.27727675 0.17024529 0.10011102 -0.33589482 -0.07267897 0.1251832 0.4755295 0.33677274 -0.23833139 0.12832244 -0.06684554 0.35710496 -0.0077924854 -0.31873342 0.07965144 0.007316722 0.04480574 -0.09185082 0.32974854 -0.07556438 -0.0133479135 0.18425168 0.63528556 0.14199714 -0.3503029 -0.16614501 0.08776783 0.41492304 0.16167867 0.02654163 0.03555665 -0.045239028 0.27639857 0.24980019 -0.052479427 0.20943221
AGCA 0.44023862 0.15422136 -0.060423568 -0.38686535 -0.28817245 -0.2340977 0.5001188 0.031585705 -0.23079309 0.11736905 -0.25440767 0.42121017 -0.031442843 -0.4445883 0.14922102 0.0033709353 0.62060714 -0.04336462 -0.12564805 0.37730137 -0.08061811 0.43043196 0.16760206 -0.3708735 0.30042735 0.03005589 -0.09499124 -0.05922766 -0.3607675 0.20266478 0.12851727 -0.3212608 -0.06843687 0.17915137 -0.3094353 0.25540337 0.37454045 -0.029460818 0.09780004 0.7013761 -0.2922941 0.11037122 -0.19349408 0.07193728 -0.079956755 -0.14761727 0.045395825 0.0562008 -0.31528684 0.37619397 -0.34045187 0.026285298 -0.08479805 -0.013460852 0.4720123 -0.4624746 -0.12459597 -0.43946004 0.66190696 -0.16870843 0.19879335 -0.076387025 -0.13252708 0.120341234 0.4454073 -0.09462498 -0.14547545 -0.104457915 -0.09244596 -0.028055701 0.62011933 -0.8154883 0.030882776 0.40584996 -0.12252614 -0.0650358 -0.11053452 0.022776937 -0.31469762 -0.05766287 0.5080167 0.0060341503 0.22788748 -0.23682497 0.37345824 -0.094672725 0.088603176 -0.24269927 -0.33320296 0.025806798 0.39046335 0.057472393 -0.40156817 0.30689445 -0.19842152 -0.16614552 0.028440226 0.31027913 0.14415045 -0.2512574
CAGA 0.15408294 0.15759201 0.5063389 -0.302741 0.15332912 -0.7831267 0.96272075 -0.08267668 0.22311737 0.019720424 -0.20978762 0.32563007 -0.06309601 -0.4201291 0.3163174 -0.029612586 0.24452375 0.20971386 -0.1615114 -0.16602342 0.5122496 0.6452837 -0.48390377 -0.17013298 0.10958224 0.32556129 -0.36484316 0.46453157 -0.38505873 0.20539522 -0.08072938 -0.33120614 -0.06896467 0.5474825 -0.114363804 -0.012091481 -0.25646234 0.23794357 -0.4117565 0.41363263 -0.36414734 0.026319647 0.03928859 0.24165201 -0.0042281738 0.2846912 -0.00017304836 0.1601699 0.03101666 0.6164678 0.20853445 0.45295352 -0.055570368 0.2096229 0.17551352 -0.2708855 0.47293732 -0.47345585 0.14670523 0.0595122 0.092173524 0.18071418 0.09330388 -0.06675305 0.13545217 -0.15971231 -0.26950532 -0.2850526 0.037313867 0.24591139 0.20469339 0.2871985 -0.27024487 -0.04411418 -0.259999 0.24215694 -0.025950024 -0.05584256 -0.014838153 -0.16602941 0.07170952 0.23315078 0.2930269 0.09654869 0.020294374 0.05612787 -0.3600314 -0.14041565 -0.41751403 -0.017671376 0.5046903 -0.13023892 0.22203785 0.23552579 -0.13994181 0.5175556 0.26682636 0.05872263 0.12651858 -0.27527037
AGAG 0.16195227 0.32464087 -0.00397562 0.05895244 -0.22252032 -0.61805785 0.888391 -0.1737249 0.0008008654 -0.4013183 -0.031751066 0.20659009 -0.14061365 0.15475899 0.27369392 0.25440788 0.22337784 0.32398722 -0.096744105 -0.30159348 0.16986623 0.38175637 -0.32581466 -0.18423438 -0.019662274 0.13836679 -0.19459316 -0.25625288 -0.3376501 -0.020525873 -0.121375434 -0.558004 0.044589646 0.44876283 0.19869268 0.2739089 -0.018838214 0.17189574 0.18392757 0.33683866 -0.6562427 0.3830015 0.18320885 0.2711591 0.08654263 0.30682662 0.097192824 0.12094294 -0.20888217 0.32990533 0.17689815 0.07797271 -0.13125187 0.27123615 0.09147798 -0.28818434 -0.15884003 -0.42963195 -0.023229808 -0.27451056 -0.079450354 0.3248879 -0.060817786 -0.28614187 -0.15251078 -0.15289232 -0.46954408 -0.18785089 0.010948708 0.15719183 0.5703076 -0.1057715 -0.006983806 0.39420792 0.057982754 0.53684425 0.06573044 -0.19110379 -0.68527675 -0.24879953 0.025362715 0.0626966 0.041602127 0.35082325 0.032441985 0.19579148 0.49388182 -0.4457177 -0.40873495 0.2633242 0.29913184 -0.06812192 0.01268043 0.3361988 -0.07111133 0.08283992 -0.11549405 0.26983958 -0.07420959 -0.25190893
CAGG 0.12451039 -0.22578155 0.5920814 -0.25968584 -0.21674278 -0.4215416 0.37208945 -0.13225545 -0.1041116 0.013760363 -0.065196775 0.2252327 -0.3530486 -0.08639959 -0.021653283 -0.042659372 0.24938922 -0.1911589 -0.48773012 -0.2517734 0.27423882 0.81781167 -0.37717965 -0.09958975 0.43695793 0.004049822 -0.07285099 -0.3558495 -0.13919796 0.45170838 -0.35065198 -0.38601992 0.46264535 0.1029452 0.12574874 -0.11132273 0.35316795 0.033227812 -0.3259429 -0.10970303 -0.52442497 0.036792822 -0.22795773 -0.032384843 -0.40345308 0.007458348 0.13459055 0.13340259 0.30701068 0.27057323 0.04603803 -0.024589168 -0.3221285 0.3181451 0.29249638 -0.39727163 -0.34759143 -0.6120858 -0.00041072394 0.23005383 0.07641132 0.2668077 0.49653608 0.15656252 0.25116205 -0.42982146 -0.48481002 -0.29207787 0.24136053 -0.14444104 0.028107084 -0.5915556 -0.47129476 -0.0952931 -0.29367918 0.051752586 0.21778676 -0.39170521 -0.33533582 -0.6912326 -0.2646952 0.3990043 0.059270695 0.31029046 0.28450677 0.22178021 0.063448206 -0.16388832 -0.30285904 -0.20826648 0.019234763 0.1437635 0.14600828 0.31492642 -0.5500338 0.335477 0.2703849 -0.14300177 -0.020069709 -0.17996998
CGA 0.15299581 0.1700427 0.04690929 -0.039452337 0.36584288 -0.6160329 0.33611438 -0.47253174 0.23576522 -0.1302769 -0.580687 -0.33853877 -0.25696468 -0.042539306 0.068662986 -0.32872766 0.2954494 -0.17969237 0.3371875 -0.38266417 0.38360435 0.041383106 -0.05197922 0.11000526 0.12711658 0.08680434 -0.07220823 0.31680736 -0.28830075 -0.00387219 0.018984491 -0.20649327 -0.025981909 0.077076145 -0.17636845 0.0029188294 -0.22319959 0.24034819 -0.047391374 0.2577117 -0.38753057 0.3397278 0.24674942 0.015996015 -0.098832734 0.3428274 0.19699308 0.12741463 0.101491444 0.11578876 0.44301853 0.0146793565 0.07567806 0.24458739 0.28277493 -0.25122195 0.09947103 0.059857532 0.14694624 0.2395709 0.23663937 -0.17794003 -0.34167445 0.32395875 -0.02550958 -0.06391413 -0.18357109 -0.43987584 -0.37263915 -0.040660217 0.33855826 0.053212605 -0.09608856 0.3320431 0.10634335 0.16254573 -0.081361055 0.01985137 -0.59227115 0.06883048 -0.22462066 0.14879398 0.15724035 -0.2914193 -0.053817246 -0.39587855 0.0017066274 -0.14359537 -0.19848056 0.13701202 -0.10279285 0.12217049 -0.08308322 -0.05705371 0.21601965 0.45173404 -0.063795075 0.39347968 -0.111437865 -0.39643407
GCAG 0.4127655 0.18586034 0.5412104 0.02845156 -0.47279388 -0.4399302 0.634135 -0.20839444 -0.40851757 0.25660074 -0.38962817 0.26560518 0.11549439 -0.17149185 0.17453738 0.13354127 0.003079167 -0.08451629 -0.00031354243 -0.1672279 -0.37014282 0.6061681 -0.21175088 -0.065411024 0.23092277 0.086376324 -0.45159614 -0.28210276 -0.10954657 0.18693385 0.29368702 -0.11108434 0.26124913 0.3574929 -0.14886343 0.06737773 0.19882637 -0.07232708 0.05085129 0.38489842 -0.40850163 0.13741457 0.117063604 0.18731622 0.059548225 -0.14659981 0.0368409 0.0064700698 -0.037753142 0.4223124 0.22102515 -0.10694684 -0.23159166 -0.04467656 0.4289572 -0.14523564 -0.22596526 0.030630179 0.22659297 0.1651623 0.1604208 0.10450579 -0.06880611 -0.18020993 0.4072228 -0.066919975 -0.33813727 -0.35797155 0.030577684 0.37880084 0.372377 -0.046021983 0.27437004 0.12424481 -0.094648324 -0.15222755 0.21946023 0.3228115 -0.5625242 -0.3509987 -0.21026896 0.19286281 0.43496454 -0.31176844 0.30914593 -0.0608951 0.1718651 -0.09983215 -0.10653672 -0.408999 -0.1618841 -0.058567397 0.3198793 0.1943637 -0.34523663 -0.3335995 0.015090442 0.07630275 0.10071018 -0.1862469
AGAA 0.41069916 0.760157 0.12877071 -0.47478798 0.33803883 -0.5598963 1.0093533 -0.032612685 0.15328136 0.61830646 -0.29194874 0.15156637 -0.2202407 -0.4465125 0.1686859 0.3042802 0.05062085 -0.07610966 -0.26285636 -0.0917585 -0.23608696 -0.04815892 -0.25520277 -0.13020955 0.45941105 -0.2431022 -0.23866972 -0.3918651 -0.250237 0.050816093 -0.43798736 -0.37617946 0.03486226 0.10882579 -0.25118116 0.395038 -0.41862142 -0.059079748 -0.0147885885 0.112029105 0.05393536 0.27463007 0.029398276 -0.1629033 -0.043338966 0.36951536 0.3694574 -0.007644252 -0.09433647 0.04464878 -0.10118218 0.28484374 -0.022484193 0.45346755 0.021860132 -0.5488116 -0.077480964 -0.14389694 -0.18212174 -0.293763 0.19334395 0.08522044 0.025203712 0.14387324 -0.53304887 -0.5615955 -0.089949995 -0.29678312 -0.3109823 0.09638767 0.55767894 -0.038242415 -0.16502714 0.31961253 -0.2435632 0.26294804 0.25972807 0.34109882 -0.27605557 0.10734035 0.2504413 0.5721828 0.37638107 0.018036371 0.4904538 0.34940153 0.34274614 -0.46643913 -0.13506043 -0.27577132 0.272072 0.21752799 -0.078704335 0.19718218 -0.20669869 0.2258794 -0.34416386 -0.03118001 0.16284928 -0.2810213
GAAG 0.17882381 0.36171922 -0.0718506 -0.28578332 -0.19475313 -0.5511856 0.71376145 0.50741774 -0.050812386 0.15679346 -0.38087904 0.39772874 -0.24483523 0.13705571 0.15651959 0.2813646 0.051951215 -0.024760505 -0.33207965 -0.42523557 -0.16086745 0.77092123 -0.03540727 0.09962607 0.091980144 0.040528968 -0.29263046 -0.26340106 -0.5138676 0.28370243 -0.25656992 -0.3087131 -0.042774778 0.5064106 -0.19204459 -0.42526436 -0.29676932 -0.27735075 0.6718215 0.19619715 -0.41937608 0.18158104 0.18470411 -0.08161652 -0.20780021 0.28538287 0.11410874 -0.31558722 0.33075786 -0.1696469 0.17900038 0.47006503 -0.16519877 0.17891124 0.14030413 -0.15425266 -0.61849695 -0.24322437 0.1852757 -0.122653805 0.26317614 0.06229484 -0.09094386 -0.19405179 0.22589108 0.08921104 -0.10615695 0.22928946 -0.098289736 0.40143234 0.48887438 -0.29741752 -0.073759966 -0.036010996 -0.26998377 0.17007458 -0.04063676 0.10185676 -0.4229213 -0.31382215 -0.013439293 0.44101316 0.009205787 0.29848447 0.7226622 -0.27462375 -0.23753396 -0.4982285 -0.45075646 -0.18411952 0.2734211 0.06621026 0.24404244 0.11114956 0.13322546 0.038076382 -0.33159876 0.05133937 -0.12451891 -0.09692647
CCAA -0.011531256 0.72763246 -0.14386722 -0.2522805 -0.5307182 -0.45282254 0.12342733 0.14115961 -0.17092963 0.40764084 -0.007989409 -0.49946967 0.12806372 -0.48267502 -0.1619881 -0.079130255 0.25272733 0.05780658 -0.28709877 -0.11238711 0.3520632 0.36983913 0.24428858 -0.2035543 0.9260932 0.006896007 0.06850114 -0.026125455 -0.44347686 -0.32405695 0.21335109 -0.7817574 0.2124848 -0.17959422 0.45825693 -0.3027833 -0.102972604 0.08258651 -0.00093328825 0.29746175 -0.006518071 -0.014406553 0.03205218 -0.09400409 0.35725483 0.23698622 0.3036648 -0.3156887 0.28125718 0.099916674 0.19627075 0.2815123 -0.09894639 0.028697494 0.51923466 -0.08980401 -0.012615626 0.20850395 -0.046940517 -0.36064833 0.6986429 0.35488668 0.27929172 0.067603804 0.39495552 0.31472728 -0.047270607 -0.011941313 -0.42358866 -0.41507748 0.7066011 0.07128352 0.2214482 0.09106136 0.034043662 0.30297846 -0.0091204895 -0.02775982 0.011315118 0.36882564 0.16311105 0.17031696 0.3811884 0.21206944 0.21617626 0.06712109 0.79543024 -0.213518 -0.62149996 -0.03951738 0.18984944 0.46192452 0.2729168 0.120712094 0.45554355 -0.2696769 -0.11530255 -0.3587691 0.6222169 0.15205245
CAGC 0.5060857 0.020000227 0.45288232 -0.51033276 -0.44762343 -0.44125962 0.4531289 -0.07189356 -0.26366556 -0.06565487 -0.07447489 0.13380328 -0.16375025 0.41456026 0.13920075 -0.059859753 0.5413837 -0.81366044 -0.09253619 0.14185634 0.43311286 0.4888212 -0.25583106 -0.065635905 0.053274233 -0.38500184 -0.078965776 -0.06077175 -0.050396334 0.050054338 0.028502675 -0.1615402 -0.34861097 0.022924753 -0.18382928 0.1538825 0.2352597 0.0013403166 0.1809527 0.10247222 -0.20577101 0.08598337 -0.05012404 0.057691973 -0.09412835 -0.2847663 0.17814821 0.5270721 -0.0071052597 0.41959772 0.36100963 0.09280457 -0.02484393 -0.13908742 0.9491581 -0.38600606 0.051334567 0.11077521 0.3661587 -0.30981946 0.31934318 0.16164516 -0.34512123 -0.0144788185 0.41001242 -0.07251497 -0.20797268 -0.49484783 0.24055831 -0.19136162 -0.06997109 0.13484065 0.0066023003 0.17085613 -0.0789764 0.24429272 -0.38051435 -0.06324978 0.19986138 -0.32933214 0.18706186 0.24869935 0.35936692 0.27943206 0.037345372 0.24679929 -0.022493793 0.15235344 -0.48262602 -0.0075198202 0.57848006 0.23184058 0.047409732 0.13668028 -0.18968524 0.03963081 -0.04684039 -0.08237473 -0.27511528 -0.4394461
GAGA 0.2463236 0.46869537 0.08421964 -0.11174303 -0.06267981 -0.60816926 0.82913136 -0.060104977 0.16776058 -0.110652536 -0.13182545 0.28567597 -0.02078254 -0.3891663 0.24362944 0.05853197 -0.31057116 0.5234965 -0.21311562 0.0738074 -0.11026429 0.5438486 -0.44498432 -0.05940191 0.12796044 0.2088212 -0.3781864 0.17681001 -0.032963905 0.24407092 0.033795256 -0.5983803 0.19287238 0.46805638 -0.034864116 0.17808959 -0.2387242 0.45728317 0.09750844 -0.06018749 -0.14324565 0.0007783784 0.40910885 -0.21428186 0.3543797 0.48187158 -0.15078676 -0.22745845 0.080778 0.07018111 0.31551144 0.08022786 -0.26370704 0.20211904 0.31569305 -0.5485445 0.25642946 -0.4063262 0.3567573 -0.12729184 -0.035591815 -0.1210877 0.018788954 0.07098453 0.13771114 -0.23126017 -0.11858267 0.036862787 0.094643645 0.27591112 0.6754994 -0.21772663 -0.25589254 -0.20265746 0.09423789 0.043815464 0.40807933 -0.039727494 -0.39483997 0.0039587617 0.0031961596 -0.0050769188 0.39248633 -0.14812043 0.26193455 -0.16969079 0.07433797 -0.64378554 -0.13576034 0.004109115 0.2650174 -0.118631646 -0.18162607 0.31780088 -0.0863471 0.2130417 0.11699764 -0.050095305 0.14399631 -0.31386933
ACG 0.28696644 -0.058697533 -0.33555013 -0.104220785 -0.19854382 -0.4459416 0.62711924 -0.09132727 0.16459301 -0.1824538 -0.48884967 0.00954442 -0.418598 -0.37357765 -0.035478283 0.022564959 -0.30313838 -0.15037704 -0.102189675 0.38602275 0.20944074 -0.02395884 0.05268603 0.35622445 0.04164041 -0.53077036 -0.40571842 0.012093627 -0.09529708 0.24422161 0.28335977 -0.19756769 -0.060611848 -0.010677142 -0.02823932 -0.0036209084 -0.049481012 0.46476597 0.093772076 0.1301315 -0.07541121 0.4203018 0.13209192 -0.11603571 0.2209183 0.020272467 0.5926669 -0.23902348 0.21889928 0.35742053 -0.081295565 0.10074886 -0.052093383 0.54308623 0.5263566 -0.13340129 0.06397187 0.020124437 -0.13186577 0.19855666 -0.23538347 0.03325569 -0.11157256 -0.23467566 0.30805898 -0.10166169 -0.1787191 -0.024556346 0.4074368 -0.073007025 -0.30355942 -0.25874868 0.46520522 -0.05719038 -0.27109087 -0.20144737 -0.032070752 -0.3031773 0.20169829 -0.020697208 -0.334766 0.35550535 -0.21683162 0.05429407 -0.050519653 -0.5133139 0.19152136 -0.28898138 -0.069697976 0.22215408 0.24353707 -0.30278894 -0.6154341 -0.1307217 0.11970928 0.03562462 0.1334456 0.44165096 0.021034332 -0.21486878
ACAA 0.2302388 0.271331 0.22674172 -0.58958673 -0.56933826 -0.38205582 0.21035796 -0.08244477 -0.7247911 0.21489155 -0.47157213 -0.0011936743 -0.15789868 -0.6959026 -0.13830556 -0.16701378 0.34737536 -0.040901862 -0.21211486 0.14770834 0.24927916 0.5565308 0.16823006 -0.03450813 0.5312133 0.14943016 -0.08421898 0.21698914 -0.29562378 -0.20180674 0.3698472 -0.7707742 -0.08346356 -0.03811561 -0.14882796 -0.31853992 -0.036897767 0.23067181 0.09863844 0.15283719 -0.15819907 0.09718493 0.08060972 0.07642176 -0.16001941 0.3260174 0.50766724 -0.10928586 0.28491423 -0.26208916 -0.11003383 0.09791695 -0.35755593 0.58484685 0.24765188 -0.29354095 0.3880039 -0.26640895 -0.12003109 -0.31878206 0.25107756 0.33850047 0.03870534 0.008385183 0.05943604 -0.17556341 -0.22007318 0.027158346 -0.27762568 0.057089675 0.024366552 -0.014605491 0.16011381 0.159088 -0.1184367 -0.1544096 0.106225766 -0.08003905 -0.0050733555 0.57844853 0.54813975 0.5897863 0.17301059 0.27124882 0.3897102 -0.046422437 0.43749824 0.13223886 -0.2413091 0.070836574 0.15007839 0.084677346 -0.109456815 0.14431398 0.35080397 0.016479762 -0.14579046 0.35795674 0.28933376 0.22184499
ACCA 0.46218538 0.25448346 0.16551378 -0.01530193 -0.17351453 -0.16055596 0.5252792 -0.24732229 -0.45789883 0.0036625299 -0.51707804 0.033907402 -0.5308627 -0.14236991 0.23243266 -0.25973374 0.24662015 0.060254645 -0.4872565 0.35593086 0.01825955 0.5973992 -0.5142705 -0.34160256 0.67049533 0.4235541 -0.244117 0.37762195 -0.16555789 0.15599474 0.33231288 0.05180354 -0.1545105 -0.110317096 -0.24593025 -0.0625856 -0.47790733 0.16688912 0.5653587 -0.15256093 -0.14569226 0.3054102 -0.13201544 -0.056650914 -0.36836475 -0.44140851 -0.18602185 -0.037522294 0.050956983 0.12090729 0.04754457 0.63269264 -0.1086589 0.11400287 0.2623111 -0.21386796 -0.24380402 -0.5746961 -0.0072213765 -0.1827967 0.3437324 0.10969409 0.46977654 -0.21646047 0.0102523165 0.22267437 -0.127677 0.3297124 0.24846639 -0.27006453 0.47317752 0.22557211 -0.20562887 0.73660934 -0.1400492 -0.26315007 -0.2922328 -0.035179343 0.1100027 0.47764605 -0.23715454 0.5523191 0.26690945 -0.14482002 -0.016151115 -0.38937262 0.63424283 -0.04341405 -0.08682475 0.078796275 0.10647492 0.16011602 -0.04053749 0.11705741 0.27883196 -0.3481672 0.35283297 0.053232253 0.03408399 -0.13180694
CCAG 0.5372477 0.12304341 0.38979748 -0.39919478 0.05144066 -0.599963 0.46987313 -0.09439763 -0.01272182 0.42211798 -0.048014164 -0.28526577 0.10930374 0.04242753 0.019355413 0.06476218 0.31647006 0.07175957 0.123754606 -0.23224233 -0.25510243 0.68371844 0.05064361 -0.2043601 0.8235271 0.19132523 -0.026408374 -0.02911453 -0.10079584 -0.24147932 0.49783546 -0.5261607 0.19116706 0.16095468 0.2866013 0.21450482 -0.1804987 -0.054589335 -0.0018251679 0.31746304 -0.45557553 0.20138064 0.15528114 0.24119039 0.28109068 -0.3104603 -0.20858347 -0.41408533 0.17854391 0.49571162 0.31863928 0.1460372 -0.15331613 0.04463518 0.34816793 -0.48185563 -0.050339922 -0.3835981 0.3343169 0.24541195 0.108059205 0.055535488 0.3871082 -0.15320617 0.4636705 0.22404677 -0.6349793 -0.25379074 0.13088019 0.08933118 0.11070761 -0.025203172 0.44045025 0.16902767 0.013064268 -0.027183257 -0.19981337 -0.20183335 -0.21051379 -0.10352606 -0.35640877 0.12256094 0.58051085 0.07760928 -0.15886341 -0.35921285 0.010870624 -0.04969203 -0.4327373 -0.15639882 -0.27334186 -0.16710013 0.45931783 0.12765741 -0.29922464 -0.6745821 0.19497171 -0.37548643 0.16343492 0.09930565
GGGA -0.09521004 -0.27379552 0.09810591 0.048821077 -0.03999925 -0.5214488 0.42157048 -0.20946148 0.10505917 0.04866507 -0.25753212 -0.34025556 0.21640663 -0.028899884 0.13082537 -0.20113736 -0.049101148 0.03074621 -0.33078566 -0.5308131 -0.33382705 0.33070987 -0.08811996 -0.30573854 0.18803552 0.6258225 -0.60245633 -0.33749795 -0.10922483 0.25332773 -0.2652432 -0.68811274 0.38879296 0.19995648 0.10017826 0.23315921 0.21533617 0.03233988 0.53685457 0.10397151 -0.272197 0.23622 0.38303086 -0.09408188 -0.034862254 0.105627656 0.30516735 0.045618888 0.46802825 -0.3123948 -0.18293782 0.12897678 0.4224604 0.11918049 0.66756964 -0.25478444 -0.51133555 -0.23234688 0.27189958 0.23371547 0.16111474 0.22563156 0.08208816 -0.046696838 -0.24863645 -0.076730005 -0.69098496 -0.21276085 -0.3789742 0.044584792 0.11628413 -0.19082053 -0.3832172 -0.013620361 0.18276912 -0.26431325 0.30109727 -0.57460845 0.027239496 -0.026168564 -0.17572054 0.31544566 0.25482416 0.09024037 0.39675933 0.027899956 -0.3174805 -0.44030738 -0.08563184 0.005191217 0.034374088 0.08412452 -0.18300834 0.17986692 0.03650665 0.2223377 -0.14453323 0.54391116 -0.053969942 -0.23874329
GGCA 0.26400933 -0.11536145 0.2217825 -0.13196026 -0.37234285 -0.32628444 0.6590481 0.2309379 -0.13985752 0.05642724 -0.21990074 0.8251533 0.19108626 -0.4222357 0.36505118 0.014067391 0.24257007 -0.25675905 -0.3416619 -0.2523154 0.020295288 0.12090126 0.11088403 -0.42432252 0.46860242 -0.2892661 -0.2191292 -0.16646059 0.17375861 0.075013004 0.07385225 -0.27584592 -0.017574113 0.1993569 0.31977493 0.52864665 0.17312026 0.32131165 0.32639062 0.650457 -0.12396499 0.007741716 -0.21648215 0.034307327 -0.24709678 -0.06130746 -0.3159069 0.00856266 0.067054704 0.3014646 -0.25393862 -0.08566865 -0.39094183 0.11253437 0.23741336 -0.28557077 -0.46252367 -0.10223004 0.6681644 -0.055276528 0.28170475 0.33562893 -0.3918641 -0.12591952 0.25471804 -0.12139633 -0.21484107 0.34785584 0.23593642 -0.17692122 0.43469357 -0.37403566 -0.015570912 0.35787714 -0.08271023 -0.1340454 -0.26252866 0.06949704 -0.36073372 0.35681468 0.20349455 0.6980866 -0.042737044 -0.43035477 0.10445466 0.35686126 0.00706991 0.058799487 -0.3041901 -0.21049805 0.07651273 -0.30432424 -0.2728183 0.53668946 0.075190336 0.29886976 0.04522883 0.2862057 0.0905365 -0.112373896
AGGG 0.1370408 0.12743467 0.07900554 -0.40111813 0.07443915 -0.6087531 0.33245718 0.054232564 0.0025721686 -0.06715098 0.25067535 0.4319134 0.0043699173 -0.32175338 0.31255263 -0.22882196 -0.003622621 0.1275564 -0.24814826 0.10790504 0.4281894 0.47231242 -0.24958229 -0.32622436 0.59116286 0.29475015 -0.5975098 -0.24625878 0.1233045 -0.07340843 -0.17283808 -0.7443935 0.32875222 0.16782887 0.020822769 0.21314313 0.12917903 -0.11774787 0.60166764 -0.09170017 -0.79681295 0.309927 0.11125014 0.43768078 -0.123061955 0.2784905 -0.07047916 -0.42136666 0.37358117 0.005023873 -0.019685242 0.1664551 -0.082681924 -0.102550365 0.05629214 0.14289789 -0.53003275 -0.24332504 0.10790695 0.03342808 0.59903103 0.24022369 0.31752706 -0.09478917 -0.048634216 -0.22226012 -0.7081141 0.02591945 -0.075341254 0.27851978 0.26778835 0.059839036 -0.10712575 -0.19889924 0.005766817 -0.416854 0.0703722 -0.3130749 -0.27365494 -0.57730675 0.24520779 0.5999801 -0.19624148 -0.37135383 -0.14273508 -0.21475613 -0.18924294 -0.6273389 0.0011364679 0.18614143 0.21212868 0.4261771 -0.06372244 0.11844523 -0.07450931 0.054499652 -0.09044875 -0.27466413 0.19001864 -0.36823288
AGGA 0.10343973 0.015942605 -0.18347879 -0.5203566 -0.39861885 -0.6846326 0.39322257 -0.027221914 -0.06072419 -0.028592585 -0.073655814 0.26736355 -0.023856882 -0.24727215 -0.14043856 -0.12969711 -0.0831165 -0.17773192 -0.40965542 0.14188354 0.16269131 0.33689764 0.006527816 -0.46473446 0.4527055 0.80970305 -0.2633266 0.05254968 -0.1071023 0.3331541 -0.10570771 -0.8453205 -0.2218754 0.52176887 0.15600504 0.5067192 0.004367124 0.21291482 0.4586895 -0.18085082 -0.40526503 -0.17863508 0.09701019 -0.108926885 -0.016415054 0.11335648 0.24310468 -0.124774255 -0.018697167 0.098547496 0.2861143 0.371735 0.24689247 -0.31963435 0.47080645 -0.12141538 -0.29267535 0.24412742 -0.26662827 0.23106273 0.3558437 0.098125346 0.26909068 -0.11221917 0.14339128 -0.20632 -0.19446668 -0.25249907 -0.22745144 0.045694754 0.47362804 -0.02184023 -0.20492187 0.13003166 0.25785786 -0.13045077 0.39691308 -0.50872296 -0.41205135 -0.1147557 0.02277941 0.216228 0.49478287 -0.11366384 0.38764608 0.024006093 0.10340063 -0.5290673 0.016998244 -0.049573824 0.289057 0.07309637 -0.3124499 0.052682407 -0.011237334 0.17763868 0.06611811 0.15567032 -0.112558104 -0.5090987
AAGG 0.78480494 0.19401118 0.004041017 0.037589733 -0.2964965 -0.2835546 0.42437407 0.16904163 0.3059415 -0.31282684 -0.32630616 0.21159188 0.025168126 0.3346193 0.32110035 -0.186986 0.04908543 -0.2472498 -0.47433114 0.29362115 0.11925712 0.33915266 -0.15838468 -0.7183967 0.52268064 0.04701266 -0.461955 -0.016307347 -0.26633945 0.56815904 -0.08166851 -0.5459466 0.6424403 -0.25181735 0.83950543 -0.22159664 0.14973034 0.015932031 0.19558915 0.44039783 -0.742426 0.114577815 0.43648303 -0.30459747 -0.42024902 0.07364491 0.12590493 -0.23934773 0.21409014 0.08776984 0.21273679 0.27030295 -0.33504322 0.1529854 -0.02654621 -0.46209234 -0.3949524 -0.15624158 0.020906204 -0.13509254 0.60154307 0.3764187 -0.008538198 0.05729989 0.30095884 0.05096157 -0.28386113 0.060569037 -0.09547089 -0.06405616 0.31469893 -0.3676658 0.023757575 0.4423802 -0.56653553 -0.32924268 0.4268908 0.06956401 -0.3571491 0.14268684 0.2570542 0.43658936 -0.21424478 0.5514989 0.19285305 -0.10489572 0.21398559 -0.23531857 -0.012299032 -0.17222641 -0.1838892 0.13903232 -0.38642144 0.031864926 -0.22799997 0.43121085 -0.36470082 -0.25353226 -0.38800913 -0.22509202
AAAG 0.23881373 0.58969176 0.24457067 0.09945944 0.29353246 -0.484539 0.4220272 0.3829791 -0.030609103 -0.1698957 -0.17682604 0.01885544 -0.1493163 0.04784587 0.18051699 -0.17741877 0.23223074 0.054755695 -0.088881776 0.09217859 -0.3381086 0.75143605 0.030530186 -0.48559672 -0.061921917 -0.07372365 -0.19090399 -0.27293402 -0.32422 0.17597514 -0.1788491 -0.5175395 0.028414017 0.55110466 0.25117776 -0.02780584 0.07380637 0.05141534 0.45610774 0.049992606 -0.39111185 0.0026139894 -0.18622388 -0.1935228 -0.19207641 0.018644677 0.57544476 -0.27853286 0.1994944 0.052966047 0.46519995 0.3158288 -0.17981465 0.41059935 0.4837641 -0.02958327 -0.102618866 -0.28586516 0.28828472 -0.150153 0.30458787 0.48331094 -0.21008599 -0.110420875 0.32474574 0.08415518 0.09025863 -0.05229307 -0.044241175 0.58916265 0.3684682 0.25459597 -0.3857721 -0.20766209 -0.15203953 0.18950765 0.6393378 0.0051146736 0.025511626 -0.0075982716 0.47030923 0.3043062 0.122083016 0.39907244 0.63633204 -0.49954963 0.249529 -0.55835736 -0.25191864 -0.6453947 0.41785997 0.2533095 -0.15202951 0.059312094 -0.054780427 0.023023961 0.44787458 0.3444682 0.3378901 0.31973842
GGAG -0.21788427 0.24094658 0.28510514 -0.2909188 -0.45861053 -0.86702716 0.63595647 0.02895141 -0.0033188818 -0.03319813 -0.3408256 -0.033339832 -0.08140186 0.25184608 0.40978426 -0.43479645 0.16905247 0.52428204 -0.2548514 -0.041402306 -0.08012995 0.31794512 -0.43142268 -0.10949846 -0.03201977 0.3132683 -0.24773417 -0.023284204 -0.13627931 0.22446598 -0.02639442 -0.38703063 -0.024186853 0.31805602 0.3800415 0.18950114 0.3744907 0.06606075 0.24276374 -0.0840015 -0.40270883 -0.009258181 0.3819105 0.14623469 -0.022959432 0.6768244 -0.08030145 -0.08176798 0.5469384 0.23775592 0.5665199 0.098050095 0.072714895 -0.12115016 0.84264666 -0.11913503 -0.22267134 -0.37852865 0.046023626 -0.115750596 -0.0003712354 0.15777698 -0.02209685 -0.258604 0.20037726 -0.042858526 -0.08002793 -0.37544367 -0.1372667 0.17374173 0.46321645 -0.23340061 -0.14394706 -0.15773492 -0.20188974 0.24050045 0.14513797 -0.34748402 -0.5369894 -0.5600096 0.16801418 0.36517203 -0.2128553 -0.28285083 -0.0017945253 -0.041857544 0.04183476 -0.20886488 -0.07562168 -0.23621835 -0.07344813 -0.36684114 -0.18541676 0.26000994 -0.014881538 0.5148406 0.15959646 -0.1957518 -0.28151575 0.105438106
AAGA 0.60319716 0.32500267 0.202419 -0.20924008 0.1032923 -0.5224599 0.8235899 0.13023086 0.095527805 0.0025782022 -0.13426216 0.016727217 -0.44403455 0.2052235 0.53680116 -0.09603959 0.24206316 0.027650172 -0.17627525 0.0117621515 -0.05166038 0.48794895 -0.62032497 -0.25289112 0.033513017 0.41093415 -0.2629519 0.46705312 -0.36200947 0.0169477 -0.049137007 -0.88741577 -0.16361496 0.40875024 0.2712223 0.13154839 -0.096269235 0.336766 0.060392797 0.49351195 -0.06887593 0.55384296 0.49337754 0.34822202 0.22689381 0.42368168 0.30144688 -0.11926325 0.0076385355 0.15858285 0.506857 0.4250011 -0.013991344 -0.19652405 0.055922814 -0.012862202 0.21374163 -0.60539 0.0817184 -0.2546515 -0.039213374 0.52994996 -0.109023094 0.21439777 -0.0105498815 -0.1190872 -0.2153937 0.12239599 -0.010502951 0.16979414 0.58119255 0.045856163 0.14995572 0.35473624 -0.15410608 -0.039835565 0.07566453 0.09824016 -0.08312379 0.22036512 0.27662486 0.16901863 -0.18519102 0.4913456 0.23011732 0.024310827 -0.038457353 -0.3131172 0.014940032 0.082780115 0.036021065 -0.075161316 0.062019873 0.051910926 0.07187618 0.16925542 -0.32367885 0.25746244 0.0057809236 -0.19694586
GCCA 0.00825145 0.4825487 0.38196877 -0.0832672 -0.8271723 -0.04442224 0.5229978 -0.030639268 0.23196906 0.03498285 -0.39523128 0.093435906 0.10221623 0.069229156 -0.073177174 -0.578907 0.29625303 0.14092009 -0.6337752 0.3081878 0.10680994 0.33478758 -0.28541416 0.12257412 0.4288402 0.16202557 -0.024204776 0.07015921 -0.5374482 0.026938455 0.35476354 -0.1210544 0.14758667 -0.17235929 -0.21776453 0.02819668 -0.30346775 -0.2606313 0.24854435 -0.2903374 -0.5674312 -0.16848058 0.34181982 -0.09206663 -0.26699665 -0.30692616 -0.0703073 -0.03289911 0.34469566 0.061055027 -0.39800966 0.43035325 -0.20840965 0.11493329 0.6372107 0.08614784 -0.2997639 -0.12671658 -0.31644377 -0.25767767 0.05866345 0.42059675 0.14014016 -0.4866746 -0.08106651 -0.4959327 0.14511164 -0.18299122 0.07317144 -0.12184931 0.5591751 0.46411118 -0.41777757 0.5018316 -0.26621625 -0.29745132 -0.041477464 0.032448675 0.08287789 0.040850755 -0.15347068 0.46478802 0.07174915 -0.3074646 -0.037980616 0.12266335 0.44707903 0.22209723 -0.19659059 -0.15510692 0.053535346 -0.0028849856 -0.02352725 0.32508332 0.27698418 -0.51200145 0.3629349 -0.02681803 -0.033098176 -0.18240155
GCG 0.065958925 0.32908642 -0.18637064 -0.057431024 -0.34419566 -0.3317054 0.25920638 0.36541757 -0.10194919 0.0004336855 -0.0449977 0.08953527 -0.38306528 0.13243537 0.031222297 -0.087156475 0.33128116 -0.03288284 0.20017035 -0.29738027 -0.021403491 0.21760987 -0.124039635 0.21329406 0.14621907 -0.22162999 -0.7019723 -0.23936908 -0.24202426 0.13628463 0.08066772 0.21595418 -0.13080375 -0.28906265 0.0835024 0.18713862 0.031289726 0.18804598 0.07080547 0.111826435 -0.646976 0.4021324 0.6328887 -0.0102747865 0.29056415 -0.043061383 0.31391183 0.0403165 0.10086894 0.34936365 -0.31570676 -0.20268492 -0.1603269 0.07788481 0.416095 0.121589154 -0.0696846 0.15656686 0.11355478 -0.09673532 -0.14194158 0.03355135 -0.24419563 -0.12097411 0.3438683 -0.47050303 -0.3207576 0.29386905 0.026609728 -0.22502314 -0.20391594 0.1877451 -0.05288521 -0.34470102 -0.019606274 -0.09712357 -0.05276307 0.21485327 -0.22157541 -0.16093476 -0.30038425 -0.0893331 -0.16494098 -0.075683296 -0.0617722 -0.14922558 -0.20955262 -0.26033485 0.06367943 0.1206905 0.41031474 -0.30575687 -0.05606127 -0.15165323 -0.08296922 -0.17942491 0.23536485 0.13920571 0.040987052 -0.26227912
AACA 0.35524613 -0.10173128 0.47379348 -0.21169338 -0.08963645 -0.32295516 0.47420257 0.23574129 -0.5424345 0.14568888 -0.1564109 0.08030967 -0.58981425 -0.6804837 -0.1207813 -0.21394776 0.39285043 -0.03271236 0.14365347 0.11927874 0.028739344 0.18729742 -0.2692132 -0.15328792 0.4588719 -0.0043699853 -0.21810363 0.4411337 -0.339937 -0.31515026 -0.023100924 -0.521352 0.11579367 -0.02885621 0.298333 -0.22150396 0.7491498 0.36270773 0.38289535 0.09502072 -0.10529802 0.35620618 -0.13282661 0.0593564 -0.1682938 -0.31808034 0.3129049 -0.33367345 -0.3130565 0.3776387 0.29370522 0.37861162 -0.27907652 0.5523958 0.19863619 -0.09637092 -0.18843742 0.2147264 0.20492324 -0.1814692 0.21586196 0.0908379 -0.36375362 0.24131653 -0.18262757 -0.27213904 -0.061442506 -0.29214942 -0.1986341 -0.0072637317 0.3734267 0.013527049 -0.05914868 0.1943825 0.33830437 -0.070269115 0.024404326 -0.5960899 0.03409395 0.28284997 0.3163041 0.19126526 0.2519486 0.13441923 0.31059507 0.25831977 0.5178091 -0.16514076 -0.114804305 -0.036839344 -0.19338736 -0.19501108 -0.017402928 0.25473002 0.096712485 -0.48169667 0.015083797 0.57972187 0.13411479 -0.21194804
GACA 0.25790584 -0.17014736 0.7391351 -0.18762626 -0.52536136 0.118908204 0.5595516 0.31259674 -0.38809028 0.4200994 -0.5718161 -0.014811289 -0.16267793 -0.36078882 0.030181551 -0.12136513 0.00093579263 0.09885301 0.3779985 0.0859874 0.08980768 0.2951718 -0.2251798 -0.1141912 0.45609754 0.13194264 -0.5346428 0.2990412 -0.2749022 -0.35140222 -0.4014018 -0.9008365 0.28163424 0.05113001 -0.4843687 -0.19618604 0.27540585 0.4702212 0.74228907 -0.028109705 -0.3768907 0.36247012 0.056438036 0.078997605 -0.19485813 0.17815027 0.36524355 0.22110307 0.0225586 0.016988829 0.34100068 0.10153198 -0.50997657 0.06810341 0.30623206 -0.40939403 -0.20522039 -0.4136568 0.2867369 0.19455959 0.21295424 -0.5287913 -0.29177785 0.10311321 0.003235108 -0.103045434 -0.07667967 0.066890806 -0.23148845 -0.08571298 0.55876327 0.24960455 -0.03055793 0.15005702 0.11758351 0.3069334 -0.0023346592 -0.3371825 -0.31287858 0.14708601 0.049814846 -0.090862714 -0.0072601913 -0.060032383 0.07410267 0.090092614 0.32404128 0.27086553 0.044965897 -0.50827074 0.24440181 -0.09267765 -0.29110575 0.032357574 0.0120129455 -0.44915816 -0.19547136 0.26294097 -0.25133792 0.28650048
CCCA 0.64211196 0.3907593 0.5519785 -0.39465052 -0.1238492 -0.07920331 0.3670181 -0.110940225 -0.8153055 -0.36496162 0.10133187 0.11802394 0.13945946 0.07103267 0.10191721 -0.443797 -0.02565114 0.13678119 -0.084887564 0.13076188 0.13117732 0.4890114 -0.015291562 -0.5424973 0.34826973 0.25736657 0.31773794 0.13252948 -0.46905115 -0.1743594 0.10472008 -0.012939921 -0.03907718 -0.009500001 -0.1750697 -0.12710428 -0.2271226 0.015278033 -0.24771388 0.002612813 -0.20534423 0.03512747 0.19306011 0.32885522 -0.27900448 0.08217292 0.3020855 0.19297339 0.3249351 0.31726855 0.07132892 0.2667274 0.17275213 0.061113194 0.51653636 0.08966327 -0.15334503 -0.027885634 -0.19731635 0.116015926 0.4326894 -0.033329193 0.15932739 0.4065946 0.41174755 -0.5504869 0.033854727 0.23450159 0.22442009 0.2033288 0.15563188 0.16147462 -0.17566448 0.54593474 0.37486047 0.08452988 -0.12804876 -0.05814713 0.046681233 0.0965821 -0.07833155 0.39544216 0.3062314 -0.2047568 0.28351492 0.1982282 0.6398037 -0.0838997 -0.2684746 -0.16975513 0.3200116 -0.032768488 0.1278569 0.08948635 0.04046992 -0.57751805 0.06725439 0.06271228 0.066046305 0.01038179
CGC 0.3129246 0.20899813 -0.057278298 0.15853044 -0.1135533 -0.2539893 0.4560755 -0.2759498 0.23690854 0.12684639 -0.13016044 -0.24121831 -0.03984206 -0.122573644 0.07499233 0.018776746 0.32198286 -0.19436361 0.2900791 -0.14601438 0.0915968 -0.01378358 -0.07571479 -0.038430773 0.05674517 -0.20614515 -0.21508582 0.101113744 -0.070027724 -0.19727182 0.043380413 0.1887632 -0.4829907 -0.44392824 0.09400194 0.05617619 -0.055512123 0.24525443 0.15732537 0.23625937 -0.023299031 -0.02231253 0.1410828 0.53186685 0.24827172 -0.28474623 -0.18052259 0.005635962 0.60331845 0.024951823 -0.10026214 -0.24441795 -0.13887095 0.07165794 0.43373898 -0.11972261 0.19082972 0.16553329 0.4120734 0.4072612 -0.01491211 0.44767877 -0.011628123 0.17268033 0.6048478 -0.4494079 0.2713958 0.08553743 0.28974444 0.01051223 0.24789393 -0.25980282 -0.07264482 -0.03831704 0.16214888 -0.48506004 0.07971068 -0.06478607 -0.3728528 0.30223724 0.027504737 -0.19091323 0.21502239 -0.10372655 0.0250467 0.1549238 0.06476257 0.08866823 -0.45115632 -0.15986603 0.17644398 -0.00086444005 -0.14443642 0.004078092 -0.00050541764 0.26902565 0.40844733 0.015181477 -0.21957725 -0.18408036
GAGC 0.26614407 0.58983356 0.20790102 0.076982915 -0.1934452 -0.5702872 0.63195235 -0.107528016 -0.1001511 -0.30048993 0.010495574 -0.046052694 -0.021418788 0.6754966 0.07587084 -0.05803696 0.13739614 -0.19503509 -0.17121443 0.32329616 0.0034318513 0.39988557 -0.48933753 0.29703087 -0.2611679 -0.3455129 -0.02742838 -0.31980118 -0.3305781 -0.33986878 0.010483223 -0.4726461 -0.042860348 0.16701639 -0.12122041 0.23293416 0.06601766 -0.08613424 0.5952572 -0.050929163 -0.3529515 0.053825565 0.27737644 0.16109379 0.35651094 -0.072264254 -0.35675576 0.15245482 0.04944242 -0.07461282 0.23792018 -0.18381974 -0.47467038 0.015217484 0.6142732 -0.28540587 0.053001165 0.05323782 0.649248 -0.10042606 -0.034498703 0.1752786 -0.32757238 -0.1375011 0.25551268 -0.26884326 0.02941948 -0.3114905 0.36414063 -0.123273134 0.27222863 -0.07291779 0.32974637 0.22232608 0.74336064 -0.038653933 -0.18332726 -0.50070554 0.1053808 -0.12062615 0.25824288 0.19442165 0.0073201163 -0.03925407 0.24966264 0.29776773 0.001016247 -0.34226304 -0.65896434 0.3785121 0.23003727 -0.09665661 -0.41105676 0.527809 -0.16845424 -0.45842776 0.18463324 -0.10873574 -0.0118187275 -0.3919224
GGAA 0.06396832 0.2032733 0.19312699 -0.6139583 0.23871754 -0.41521215 0.42865095 0.31780234 -0.14635669 0.71329623 0.12281767 -0.09260261 -0.43081912 0.0042792573 0.15468195 -0.27330723 0.42818287 -0.13938266 -0.2759565 -0.13168663 -0.34081638 0.38844472 -0.55756664 -0.35987797 0.7044428 -0.014704428 -0.30599678 -0.28866974 -0.020032046 0.28052738 -0.21036965 -0.28204262 -0.32702798 0.44153413 0.10132135 0.41826165 -0.4262956 0.11487113 0.180934 0.17465538 -0.12868409 0.16391458 0.29540363 -0.034222923 0.090200424 0.34522346 0.4785438 -0.26340804 0.05048603 -0.10109638 0.63108915 0.008702821 0.10620548 0.46803233 0.19744125 0.022482894 -0.25916803 0.0075310706 0.0034186672 0.051418453 0.04487335 -0.06799737 -0.27070162 0.023327664 -0.3543607 -0.20135275 0.0068578757 -0.02759259 -0.3812674 -0.26313478 0.35193032 -0.020060847 -0.1732256 0.23056075 -0.15194626 -0.17432415 0.11698252 0.11545311 -0.2822845 -0.020897755 0.20123845 0.82795864 0.44258478 -0.14050354 0.058405977 0.08776709 -0.22184925 -0.10277367 -0.022329379 -0.32671356 -0.31159955 0.0043119495 0.03731468 0.85113966 -0.43815544 0.2895038 0.22314596 -0.065368846 0.18479294 0.043335516
AAAA 0.29370555 0.5723831 0.1740511 -0.34034467 0.070740625 -0.25814688 0.010353993 0.07601459 0.076445505 0.2838082 -0.08472901 -0.2351059 -0.21651754 -0.2442169 0.3087648 -0.32002547 0.28148332 0.114440195 0.3841282 -0.1204152 0.051448185 0.50897604 -0.24248557 -0.62440413 0.19139752 0.10063498 -0.1471307 -0.22125731 -0.014753433 -0.22873425 0.26648366 -0.18618464 2.7395878e-05 -0.004045758 -0.019473227 -0.16099954 -0.18125835 0.37537575 0.14087917 0.49926248 -0.3235018 0.072338074 0.13795015 -0.045031942 0.021218773 -0.1250489 0.45478976 -0.3388282 0.20348464 0.050447848 -0.121072404 0.17937951 0.07418288 0.40897444 0.27916053 -0.22475612 0.20075919 0.09490685 -0.046497084 -0.3986786 0.27407444 0.2052203 -0.037717707 -0.067337014 -0.14218001 0.00085120037 -0.04815032 -0.113178976 -0.27482116 0.41228458 0.5175537 -0.21606 -0.33940902 0.12480773 -0.023368007 0.358345 0.3052952 0.09324128 0.23656262 0.20593739 0.47742105 0.6271592 0.2699947 0.16938324 0.4658899 -0.15109758 0.4444056 -0.43166882 -0.09147474 -0.4426606 0.46071047 -0.00809414 -0.24149998 0.47632706 0.17253122 0.19927163 0.13324855 0.115608335 0.35443524 -0.17645402
CAAG 0.37990743 0.12215055 0.24857664 -0.2929645 0.07726167 -0.5598167 0.3084602 0.08148041 0.21296644 0.11006887 0.043376513 0.2744581 -0.28432503 -0.042057257 0.10375977 -0.05869284 0.6052184 -0.21165828 -0.5894632 0.1761739 -0.019906387 0.6455406 0.2421404 -0.37833264 0.3026017 -0.38555583 0.16489477 -0.2910628 -0.30097726 0.1672439 -0.058239058 -0.5320571 -0.060721517 0.18593535 0.27659434 -0.11864641 -0.31200108 -0.028918855 0.1682498 -0.36984193 -0.24157551 0.097247474 -0.17149846 0.038334146 -0.015275105 0.31097057 0.30577505 0.030814353 0.005249294 0.37781534 0.61498797 0.5792074 -0.10060667 0.2775168 0.11680734 -0.12262942 -0.03187408 0.05576741 0.77730805 -0.3446785 0.29856473 0.05911833 -0.10967146 0.08334229 0.24199964 0.12957415 -0.062283363 0.26194558 -0.00444435 0.5701641 0.52382016 0.39751637 -0.2723628 0.032227606 0.12441889 0.020626558 -0.05754274 0.40203348 -0.13620591 -0.4304722 -0.4981084 0.08582586 0.31916878 0.83657897 0.6139031 -0.24827422 -0.15746994 0.011500834 -0.3666518 -0.29896185 -0.019041453 0.10394695 -0.48319566 -0.1497761 0.4164159 -0.0083181 -0.22954394 0.28038797 0.17576541 0.21127905
GAAA -0.283923 0.4845276 -0.09029965 -0.7959002 -0.37684056 -0.53936917 0.2650025 0.6795322 -0.0506482 0.21352665 -0.26304746 0.08397781 -0.18658681 -0.100785464 0.28815177 0.1677284 0.25412586 0.27512258 0.5065692 -0.2516524 -0.08052683 0.2288203 -0.2758914 -0.13919398 0.40860322 0.06516274 -0.47581252 -0.33118802 -0.31269926 -0.24283075 0.18619609 -0.29527026 -0.32666817 0.28954628 -0.21666889 -0.16213398 -0.17661564 0.31436595 0.14787123 0.587566 -0.104607224 -0.036161803 0.36152747 0.18776238 -0.09479954 0.12078183 0.12764084 -0.2812356 0.07408453 0.31990775 -0.04051399 0.30199137 0.24357034 0.44764107 0.057723425 -0.053208318 -0.01090802 0.25919574 -0.5075077 -0.1585302 0.47163546 0.07495875 -0.34959903 -0.04507482 -0.051725835 0.16906928 -0.1515784 -0.11803523 -0.13925661 0.11042899 0.33083275 -0.32244676 -0.24644688 0.33747926 -0.3044961 0.2700301 0.23578693 0.20103028 0.116824046 0.014503735 0.066958226 0.65763545 0.45666116 0.51640517 0.6052879 -0.069133714 0.08212918 -0.101244204 -0.0074223815 -0.3961148 0.5940414 -0.2034242 0.08213589 0.4517915 0.48778358 -0.25203073 -0.32744864 0.017997 -0.13162738 -0.33534855
AGCC -0.1476275 0.4858514 -0.15441816 -0.2205767 0.06129019 -0.4510562 0.5298382 0.010588604 0.3350441 0.05575536 -0.26852295 0.18543373 -0.159123 0.27226347 0.037546713 -0.322822 0.41704592 0.048096195 0.12999484 0.25160787 0.054692 -0.042486645 -0.13164279 -0.24998377 0.6386051 0.3957872 0.018226797 0.1983666 -0.6254607 -0.101666294 0.22627048 -0.41103995 0.092825994 -0.012179586 -0.35663283 0.14906451 0.21258524 -0.688161 0.41110232 -0.019023968 -0.61915934 -0.30280116 -0.17697318 0.4947154 -0.06766116 -0.06160546 0.0820824 0.32220396 0.40329796 0.14880142 -0.31202334 0.093303196 0.05805092 0.31100577 0.6796546 -0.017955473 0.06900264 -0.08883627 0.24452525 0.2653699 -0.095026344 0.2572581 -0.094754726 0.37485734 0.4904819 -0.54591924 0.068636484 0.15149419 0.2780609 -0.18700796 0.45957056 -0.43232235 -0.08092249 0.54817694 -0.10356379 -0.07117033 -0.13754347 -0.05020662 0.3259444 0.041917518 0.22803007 0.13566794 0.2991541 0.066229306 0.45156965 0.28624806 -0.16053815 0.20755431 -0.046560615 -0.009093733 -0.14288113 0.17160973 -0.4772976 -0.1057949 0.14204265 -0.50425106 0.3372864 -0.07626451 0.0149581125 -0.16834539
GAGG 0.1841133 0.1265351 0.13580626 -0.089417264 -0.30622524 -0.5076992 0.3253673 0.061205328 0.064904615 -0.1811567 0.10018463 0.24216728 -0.06553519 0.25749248 0.02687266 0.2649374 -0.28628471 -0.16418804 -0.17271833 -0.057128888 0.020585852 0.6443396 -0.25127545 -0.4319944 0.37331453 -0.078925356 -0.045733374 -0.48298395 -0.44848925 0.39117154 -0.07706978 -0.56257373 0.2506836 0.4208926 0.16007248 0.09636032 -0.2383411 0.17668217 0.08743497 0.0760379 -0.9715851 -0.1130962 0.41939768 -0.07756138 0.13900125 0.046919037 0.13064365 -0.123613134 0.08933061 0.089437656 0.05532308 -0.115216136 -0.36335772 0.32299596 -0.15097052 -0.35894477 -0.39761347 -0.3166887 0.09670523 0.3149918 0.31034967 0.06191027 -0.18787725 0.017817378 0.109610714 0.24625924 -0.27692807 -0.015700912 0.06408156 -0.32401213 0.35000527 -0.36963364 -0.33573908 0.07808563 0.11104579 -0.22888942 0.19631004 -0.27325282 -0.40562198 -0.1564508 -0.3097792 0.29602402 0.26470366 0.34798405 0.20537083 0.063755676 -0.12536228 -0.21540862 -0.1496788 0.14035586 0.104158565 -0.42614475 -0.043653037 0.4170415 -0.42594796 -0.08131312 0.2031061 0.13222188 -0.35734376 -0.23776312
AACC -0.012456687 0.6415566 0.83635515 -0.08149242 0.08354777 -0.24856238 0.69842774 -0.06870612 -0.44627395 0.106781416 -0.2682202 0.14771554 -0.2937402 -0.33368915 -0.19152233 -0.38029867 0.45175546 -0.044980053 -0.07585862 -0.06438322 -0.07457202 0.11572285 -0.1440102 -0.3628802 0.52561533 0.07621875 -0.17510788 0.08612395 -0.30202103 -0.25524816 0.21010047 0.033116885 -0.37825677 -0.21756418 0.1779796 -0.40423262 -0.055274203 0.27313647 -0.016794281 0.47253984 0.18323639 -0.018743044 0.15684971 -0.31156173 -0.2717934 -0.65343076 -0.18751334 -0.071846046 -0.29783168 0.1701576 0.033412505 0.46904227 0.040540524 0.11430762 0.45907 -0.14491701 0.17073567 0.18187575 -0.030484203 -0.026545832 0.06392444 0.11182166 0.33713743 0.5032804 -0.074141614 -0.43348154 -0.09485615 -0.346008 -0.3299121 0.041220393 0.35659912 -0.021896856 -0.18004443 0.3957358 -0.16408946 -0.23501427 -0.10080543 -0.6608106 0.45470294 -0.07971342 0.22490002 0.21257193 0.23746264 0.43537557 -0.13492534 -0.23361585 0.3320188 0.05978495 -0.2521417 -0.15958138 0.46723643 -0.6711718 -0.26738608 0.16417481 -0.45516992 -0.34432283 -0.43037605 0.5511205 0.13331264 -0.028459227
AGGC 0.107853 0.10582932 0.5849807 -0.3979148 -0.06326866 -0.55704546 0.39591905 0.14714186 0.32250586 -0.18461427 -0.085718066 0.6013517 -0.45998526 0.025837297 0.030407777 0.004354004 -0.05952086 0.0099093 -0.23214436 0.20114593 0.40025288 0.3185307 0.37516925 -0.8122521 0.29823074 0.16410604 -0.61514384 0.14614765 -0.09635525 -0.20275806 -0.2664746 -0.30747715 -0.16888268 0.18551283 -0.10452398 0.5007402 0.3210787 0.192441 0.03102877 0.16938263 -0.4869978 -0.109551616 0.2301614 0.4623031 -0.386191 0.044744693 0.46443415 -0.15078044 0.58804166 0.30540127 -0.124896996 -0.29008073 -0.24850225 -0.31737998 0.21251824 -0.036812972 -0.4956378 0.13113958 0.29738662 0.5267061 0.20939495 0.17525706 0.15349859 -0.108692616 -0.07291763 -0.26895434 0.110019244 0.34824392 0.28242773 0.07280726 0.3330779 -0.1974425 -0.027586734 0.1843555 -0.26561135 -0.73767674 0.55957156 -0.24359503 0.09252637 0.15544745 0.089366175 -0.011910248 0.48838422 -0.3631205 0.024705015 0.43311512 -0.34488317 -0.13234213 -0.25156572 0.14791135 0.2650959 -0.20613904 0.29891446 -0.035198767 -0.010662223 0.21367319 -0.17251556 0.14491068 -0.2847777 0.2678106
GCAA -0.085895896 0.32833755 0.30157322 -0.13875408 -0.327896 -0.23643953 -0.19259997 0.025872305 -0.5540599 0.380011 -0.56766874 -0.052451782 -0.14169988 -0.39991766 0.18760838 0.16297323 0.33030376 -0.17854498 -0.07513722 -0.36236262 0.28496215 0.848407 -0.110273875 -0.082174025 0.35452488 -0.2933776 -0.34135252 -0.15104787 -0.45981613 -0.42110023 0.4909786 -0.29315728 0.27388597 0.08681535 -0.10698974 -0.17844345 0.14437905 0.03953743 -0.08152338 0.3984642 -0.14096278 0.099702165 0.014337678 0.30249763 -0.39718768 0.11762737 0.5420144 0.033981055 0.30586785 0.17414074 0.02138391 -0.19489194 -0.21468832 -0.23750435 0.18301402 0.0047351774 0.185579 -0.048799124 0.16080983 -0.3098032 0.49641606 0.29833722 -0.2067548 0.04432714 0.25113213 0.17770708 -0.30575305 0.36841267 -0.31201375 0.111580156 0.40684828 -0.042155627 0.36910865 0.390311 -0.17716648 -0.013071838 0.16026722 0.46603358 -0.021186588 0.27825183 -0.06717661 0.24893565 -0.1286779 -0.036137886 0.48427656 0.32382587 0.42890957 -0.41291824 -0.04710587 -0.29224068 0.26706344 0.08086185 0.102503665 0.2817517 0.19842349 0.27678806 0.114735335 0.10461428 0.7513917 -0.088502586
CAAC 0.49306473 0.43636057 0.26996788 -0.37308356 0.16369921 -0.120639995 0.49862775 -0.29556903 -0.47526473 0.47162807 -0.16148865 -0.19191156 -0.62782055 -0.5099286 -0.46455595 0.010699554 0.5793241 -0.10793026 0.15240218 0.10645457 0.533724 0.6336425 0.29866993 -0.2166231 0.5320364 -0.12368576 0.32784984 0.08760874 0.26166627 -0.032237887 0.1977525 -0.7818538 -0.20592842 0.3116667 -0.08351141 -0.10839987 -0.036136143 0.4403019 0.20200898 -0.38731486 0.15253496 0.040799066 0.16899383 0.61436504 0.07338087 -0.2313484 0.29139355 -0.11910552 0.12895468 0.18327777 -0.026489694 -0.05326106 -0.31177208 0.18169689 0.17029051 -0.43982798 0.13024604 0.09040583 0.06180217 -0.3960778 0.053183753 0.07438537 0.10478971 0.32955885 -0.06460321 0.06739239 -0.29381704 -0.07978539 0.023951378 0.035249937 0.25825062 -0.24772517 0.013115397 0.19149815 0.06475828 0.024284955 -0.034023754 0.003933018 0.17011282 -0.46400714 -0.098052844 0.21881068 0.041813836 0.24661188 0.048991345 0.068702176 0.2016436 0.14414617 -0.36216068 -0.19341251 0.22472423 -0.23793192 -0.45016688 0.391026 0.6544838 -0.049406387 -0.18893817 0.26168522 -0.25858793 0.019816084
GCAC 0.28838438 0.06908833 0.5744882 0.30870947 -0.5132552 0.33393326 0.6249542 0.042395834 -0.64340734 -0.3341027 -0.6058862 0.29100367 -0.21499766 -0.5797964 -0.0036673816 -0.011237691 0.35170442 -0.32204232 -0.3771631 0.07636565 0.039756835 0.44773823 0.08344454 -0.21134223 0.30943245 -0.008505239 -0.51794934 0.35288015 -0.20250846 -0.27195364 0.33130684 0.22144756 -0.011852657 0.13730817 -0.20511986 -0.07672193 0.29865003 0.04244712 0.07334628 0.29130328 0.021218074 0.3427821 -0.35327464 0.23885468 -0.12450185 0.036714867 0.34741142 -0.18643166 -0.043892633 0.18032514 -0.093742035 0.25701523 -0.27043983 0.07558688 0.52945954 -0.4571874 -0.54122585 -0.018560171 0.35633555 0.33552304 0.28753605 0.11301994 -0.24758737 0.27378646 0.38185716 -0.13666011 0.2055429 -0.35493463 -0.22736703 0.16140005 0.48911193 0.057207976 -0.32785836 0.09450369 -0.043516245 0.19360901 -0.02311822 0.49072343 -0.064867795 -0.20686628 -0.40395287 -0.39495078 -0.037193857 -0.27442124 -0.038912725 0.25011513 0.208278 -0.42939317 -0.35465708 -0.26227626 0.123580866 -0.07370469 -0.22557558 0.77643085 0.0013123582 -0.12839958 -0.2442362 0.10538696 -0.086900294 -0.33151084
CACC 0.33679566 0.4134997 0.3708602 -0.12829924 -0.004463512 -0.016815243 0.5243737 -0.4509537 -0.70603865 0.35610503 0.07325717 0.30932963 -0.3235473 -0.08892057 -0.29849613 -0.12830395 0.18743901 -0.06643273 -0.41097832 0.41741043 0.16656208 0.31402194 0.30739167 -0.5353894 0.13558018 0.02048214 0.25275978 -0.20862061 -0.51345396 -0.06524901 0.098056085 -0.021217613 -0.24984035 -0.28730896 0.0103239035 -0.28492078 -0.12482429 0.11622987 -0.31096467 0.24713951 0.091649815 0.24978712 0.23431487 0.13136333 0.119641446 -0.14004193 0.17731677 0.11701399 0.108447775 -0.15835744 -0.42676842 0.3032426 -0.013400675 -0.13382378 0.4678536 -0.513046 0.08767379 -0.19033477 0.24416597 0.058024433 0.03628741 -0.09540278 -0.103907965 0.6813271 0.4109511 0.026033815 0.16399841 -0.09301464 -0.52035517 -0.047756623 0.8020556 0.006144999 -0.6064986 0.21180576 0.25507575 0.12545742 -0.48397902 -0.6205942 -0.04201015 -0.34582743 -0.2499715 0.013353189 0.024535442 0.023365075 -0.2318523 -0.016910428 0.38738155 -0.03888268 -0.08463297 0.16465181 0.18598102 -0.20538607 -0.07094129 0.01807006 -0.09581699 -0.011483809 -0.56868285 0.3111457 0.0879578 -0.06082244
CCAC 0.1078294 0.22841243 0.6122386 -0.08524167 -0.04401594 -0.03326017 0.61415195 0.15739156 0.10761836 -0.26525658 -0.12928991 -0.1844314 -0.05885937 -0.4233079 -0.096159436 -0.2328967 0.2601786 -0.23930298 -0.050069954 -0.11115743 0.30893883 0.20220454 0.16760293 -0.29578575 0.735748 0.08612174 -0.051987316 0.5770151 -0.25398874 -0.7436561 0.38649264 -0.014083747 -0.18116868 -0.19589347 -0.14957742 -0.044369236 -0.057779834 0.05380074 0.24792922 0.0747653 -0.02075767 0.22701289 -0.38048238 0.27763328 0.01369285 -0.047640327 0.1634737 -0.27810496 0.42553762 0.25261354 -0.09308897 0.40692705 -0.09309683 0.47330987 0.6096532 -0.487328 -0.4451641 -0.14532639 -0.041570336 0.23471257 0.17740263 0.12424532 0.034239437 0.4458382 0.5180572 -0.09221139 -0.07001447 -0.48255187 -0.15095346 -0.19669999 0.37348142 0.1756284 -0.36963782 -0.033877593 -0.17694417 0.42380837 -0.20907478 0.052256424 0.37117583 0.11725386 -0.2636398 -0.34212732 0.23317587 0.18046764 -0.2948376 -0.1403973 0.08572277 0.21668507 -0.2719792 -0.0076070037 0.23068146 0.049507897 -0.10383035 0.48568678 0.28080124 -0.39727274 -0.18448894 -0.15042865 -0.2455456 -0.21551067
AAAC 0.35900435 0.6190846 0.15347464 0.027828505 0.24957696 0.044527613 0.5728965 -0.038698573 -0.49555722 0.5511523 -0.24606426 -0.31208357 -0.6417405 -0.19821392 -0.1594859 0.078627884 0.19806829 -0.075823896 0.15410827 0.16151556 0.32488447 0.25348532 0.03203711 -0.5956616 0.1813993 -0.11142307 0.31423768 -0.0109465 0.13889235 -0.07873644 0.0029535887 -0.32719064 -0.12397616 0.35139814 0.08727134 -0.07492953 -0.20575297 0.55512005 0.36985305 0.4425438 0.10465814 -0.2775734 -0.055069044 0.25425774 0.10876704 -0.7697794 0.612959 -0.34163818 0.009690452 0.08535177 -0.0541125 -0.09863037 -0.06740856 -0.035097722 0.6762487 -0.16443269 0.04258482 0.299536 -0.19376563 0.002564958 0.4666843 0.056807145 -0.09491566 0.2321597 0.11290869 0.3043704 -0.16142175 -0.46093547 0.198755 -0.10406063 0.42710105 0.005399028 -0.23042765 0.3341638 -0.3010288 0.1385491 0.3670905 -0.089786455 0.4281679 -0.23380035 0.50114286 0.83781785 -0.086301066 0.3303742 0.15014605 -0.14202347 0.22942369 -0.061285827 -0.008737836 -0.41590834 0.33356693 -0.24845624 -0.11760436 0.010414042 0.39610118 0.12403469 0.010287518 0.37555668 -0.1291347 -0.12755299
AAGC 0.8200391 0.405753 0.112031974 -0.56978714 -0.22956274 -0.306447 0.3519802 0.23427603 -0.05787456 -0.1125631 0.19028829 0.25610897 0.17993163 0.55828166 0.36172795 -0.34657335 0.79051703 -0.44161028 -0.16522175 0.12736657 -0.13313395 0.10879956 -0.32523793 0.13923758 -0.06087737 -0.199324 -0.32108185 -0.06300082 -0.08325584 -0.09328156 -0.06550881 -0.22505875 -0.19759071 -0.22552031 0.2490296 0.003240816 -0.06296857 -0.25803357 0.65370774 0.4878719 -0.28709534 0.47985157 0.28364244 0.074924394 -0.012133843 -0.21647961 0.0890498 -0.2063971 0.089666344 -0.19978337 0.33583912 0.28839538 0.14775378 -0.27690727 0.58472776 -0.38265026 0.13018341 -0.002724361 0.30939615 -0.010561856 0.098477416 0.33844987 -0.08980877 0.09966873 0.45001394 -0.32025734 -0.083728224 -0.29817003 0.24549012 0.202392 0.17279787 -0.001034008 0.2549188 -0.0020734374 -0.12776588 -0.04090562 -0.2062651 -0.12089458 -0.32327473 0.12676632 0.5169501 0.26165098 -0.008598881 0.3589053 0.35721415 -0.03483984 0.25749427 -0.3447854 0.059706748 -0.49548614 0.21680743 0.23579973 -0.15024726 0.16930057 -0.31621563 -0.16283731 -0.36898223 -0.31349498 -0.0432482 -0.31432456
GGGG -0.0065158186 0.20749971 -0.23375864 0.2797962 0.071810335 -0.8135159 0.4775406 0.14999811 -0.06989818 0.073082626 -0.039859742 0.13402803 0.058905248 -0.26991645 0.34116834 0.10406037 -0.2041718 0.06499645 -0.11865095 -0.3282644 0.20940863 0.43686116 -0.3255587 -0.23930414 0.46169832 0.08718244 -0.8406588 -0.5549748 0.062230095 0.12857595 -0.26157397 -0.19850388 0.4118725 -0.083917595 -0.0029851452 0.029135041 0.09187414 0.21007387 0.4247888 0.11877916 -0.77003974 0.4313037 0.4007555 0.013164142 0.09439535 0.038384285 -0.09877751 -0.047860328 0.12187491 -0.22836189 -0.043633122 -0.055487912 -0.073959954 0.28210682 0.034092076 -0.024072057 -0.6043032 -0.38555342 0.21151611 -0.16314864 0.5657093 0.37957156 -0.039899237 -0.0065612746 0.04800731 0.034576446 -0.65672594 0.058647882 -0.32155728 0.023633318 0.2173133 -0.12985599 -0.3197574 -0.16901849 0.12801516 -0.46661174 0.11311053 -0.14636493 -0.2675783 -0.47284612 -0.1983918 0.6835178 -0.0005339658 -0.043755047 -0.082456544 -0.23088545 -0.33019036 -0.5223232 -0.0694551 0.07849906 0.07850041 0.21685116 -0.0036015392 -0.047652554 -0.2599474 0.021144789 -0.2876031 -0.13644516 -0.08238436 -0.14465915
ACAC 0.44921732 -0.18734075 0.22186118 -0.61769164 -0.35173282 -0.12300827 0.5882507 0.17000028 -0.65741116 -0.016783053 -0.2256673 -0.03257163 -0.21319206 -0.56533414 0.114036165 -0.013480659 0.26407614 -0.12249315 -0.69942635 0.30656436 0.19594681 0.3501324 -0.10691129 -0.0934302 0.2720098 0.0199016 0.13263452 0.45024294 -0.11379359 -0.39786342 0.32672927 -0.35080206 -0.19186948 -0.16782208 0.095804706 -0.048646376 -0.06235441 0.4452502 -0.039973393 0.048620865 0.13091327 0.30630553 -0.15822989 0.36576012 0.11893404 0.35812494 0.30387473 -0.34759608 0.15451266 -0.19465679 0.025587045 0.11009178 -0.2109997 0.4913559 0.3257874 -0.38302913 -0.31698182 -0.3355019 0.16106138 0.20455498 0.15308882 0.1714438 -0.13340066 0.44099775 0.13914917 -0.4366628 0.09988401 -0.29434684 -0.17594028 -0.021665718 0.1838313 0.25569558 -0.601502 0.20580487 0.27311063 0.074876115 0.33227322 -0.16017099 -0.042313423 0.30157548 -0.08423285 0.11235011 0.079493426 0.30108848 0.16651966 -0.07157159 0.38362738 0.044777602 -0.14111073 0.14204569 0.072475314 -0.070174225 -0.33661035 0.43404135 0.16837646 -0.13154402 -0.065053284 0.1928972 -0.21444343 -0.25520992
AGAC 0.16951108 0.33658716 0.17220527 -0.36939856 0.23599324 -0.37688023 0.45402288 0.11919102 0.0931315 0.5221209 -0.35471913 0.24313071 0.3058195 -0.07496388 -0.04858603 0.4972245 -0.101799585 0.026554719 0.021431625 0.21507749 -0.073811404 0.3784337 -0.20131215 -0.13474303 -0.06934683 0.011768805 -0.47587618 0.043589298 -0.6958195 -0.4875185 -0.10424804 -0.8537501 -0.030978154 0.18551737 0.10367371 0.36883903 -0.21955302 0.26049605 -0.0354242 -0.008817306 0.3467806 0.45671615 0.14835459 0.7692547 -0.554034 -0.14479612 0.4267137 0.11777321 0.30186477 0.21719177 -0.19997303 0.39892113 0.329108 0.56347907 0.24595562 -0.44127452 0.21817611 -0.118003905 0.12474584 0.11448211 0.014578029 0.11522899 0.010537447 0.22823878 -0.08103533 -0.41552904 -0.3681746 -0.17337932 -0.29442298 0.55640453 -0.08202557 -0.094762236 -0.1136223 0.52586126 0.1199361 -0.021893702 0.10640545 -0.5014315 -0.25738624 0.40586314 -0.31136683 -0.12625125 -0.31273195 0.105011836 0.34896487 0.115490414 0.35782865 -0.57405084 -0.15654291 -0.03786148 0.297581 -0.3303701 -0.017647143 0.13847136 0.081337914 0.17892343 0.34231302 0.14166936 -0.18686995 -0.21017179
GAAC -0.05457816 0.5076195 -0.20846137 -0.40758514 -0.08251999 -0.36937708 0.7845409 0.12013577 -0.5144878 0.7266497 -0.46551526 0.056635626 -0.6889844 -0.2054677 -0.33075556 0.28533587 0.22674571 -0.106042035 -0.10812879 -0.19976819 0.4054114 0.3693215 -0.31710184 0.42560235 0.1583418 0.06980491 0.18735972 0.13965319 -0.20189342 -0.022954004 -0.15398921 -0.003096157 -0.12516901 0.22312641 -0.26363483 -0.6377365 -0.2555812 0.079835914 0.4903891 0.18220793 0.13022862 -0.051482745 0.3302891 0.5047409 0.2046585 -0.32401425 -0.054650497 -0.31072333 0.15806122 -0.17752199 -0.19015764 -0.03898706 -0.1660416 0.072653174 0.2953737 -0.2106535 -0.3717135 0.31633407 -0.39614347 0.0052899877 -0.18104263 -0.04940873 0.021745848 0.269355 0.032268863 0.004746315 -0.05421195 -0.3133445 -0.08838235 -0.101343915 0.605318 -0.6732077 -0.07920945 0.028014226 -0.07434377 0.19372104 -0.025594305 -0.23011152 0.03061621 -0.2224717 0.19695638 0.46492827 0.33851585 0.34222823 0.3030393 -0.07571356 -0.06345503 0.1809258 -0.22764708 -0.13492031 0.1132557 -0.30542886 -0.1504482 0.3599443 0.665794 -0.17176531 -0.4374239 0.078815185 -0.25187847 -0.3223907
GGAC -0.14058532 0.33737606 0.032822344 -0.3191026 -0.20943351 -0.24268116 0.49967495 0.27962688 -0.3927894 0.5692266 -0.4762407 -0.00084610644 0.21334165 -0.04194868 -0.31948105 -0.010037105 -0.36050892 0.0136922 -0.3217904 0.067066275 0.011690988 0.24437635 -0.44498068 -0.7387767 0.34918252 0.20655465 -0.6300384 0.011610659 -0.30427065 0.016362332 -0.19369881 -0.42438683 -0.061636 -0.34136072 0.29666373 0.10896036 -0.009345313 0.14842887 0.014802134 -0.28364262 0.07516669 0.25394914 0.5479479 0.046934567 -0.6431978 -0.014690083 0.38096562 0.3860092 0.43112773 -0.05671309 0.30884227 0.34188107 0.29260364 0.41862947 0.5810157 -0.34285057 -0.1849553 -0.09433178 0.29186153 -0.2238211 0.16193327 -0.25549808 -0.14984101 0.10586003 -0.057934485 0.3505836 -0.052462533 -0.021191113 -0.7134939 0.12570618 0.025720887 -0.16193955 -0.2827819 0.4189765 -0.027477363 -0.20920643 -0.24470374 -0.44755062 -0.039042015 -0.19939531 -0.3173503 0.49539575 -0.39530167 -0.23110482 -0.111966714 -0.07363679 -0.19405437 -0.18282332 -0.3113112 0.19221233 -0.116744 -0.5457603 0.04174392 0.0714904 0.053783502 0.37443116 0.19548532 -0.24344836 -0.7270366 -0.16849513
GGGC 0.31143624 0.26528168 0.11669128 0.2396821 -0.35456306 -0.89990765 0.4552341 -0.13092957 -0.12935562 -0.17751455 0.41321024 0.01858095 -0.04757298 -0.19974929 0.43832624 -0.37260485 0.29684162 0.22543797 -0.13525221 -0.23967755 0.04760035 -0.043768093 0.011416939 -0.35617718 0.34132564 -0.2490952 -0.71306884 0.022091499 0.19080514 0.27271923 -0.12748611 -0.0938787 0.21676743 -0.14462484 0.06804083 -0.04619677 0.2573791 0.079515055 0.010249087 -0.093435116 -0.33490533 -0.1406278 0.27856582 0.5052923 0.13258903 0.19738653 0.359775 0.17140613 0.44290587 0.29268777 -0.40092176 -0.5460485 0.066325605 -0.21440703 0.016708618 -0.20865333 -0.3137273 0.01135503 0.7521164 -0.16500336 0.21652922 0.33445048 0.058176886 0.057405535 0.060495544 -0.3981303 -0.17419602 0.028608195 -0.043850683 0.07666495 0.46430433 -0.44134125 -0.37484193 -0.20784067 -0.09633978 -0.5850463 -0.065349385 -0.20761909 -0.2899996 -0.5473668 -0.2076886 0.27655682 0.33058247 -0.31311038 0.33209607 0.33791265 -0.26899788 -0.17557606 0.00088854716 -0.1768716 0.2656059 -0.14897063 0.098185845 -0.07287509 -0.055966627 -0.20881332 -0.48724297 0.00081526214 -0.43518624 0.4302686
CCCC 0.38321173 0.45449102 0.26798588 -0.14354946 -0.061570596 -0.06619122 0.46255246 -0.022732276 -0.4424455 -0.27255872 0.19639973 -0.36785254 0.19340935 -0.13976182 0.123682424 -0.46756196 -0.079564296 0.30426133 0.0010546315 -0.1406086 0.16290541 0.20599236 0.111880764 -0.5423337 0.16173269 -0.05646943 0.40728483 -0.12902877 -0.6025921 -0.33410627 0.1892121 -0.04443301 -0.21860124 -0.22307642 0.27577665 0.012748036 0.048767027 -0.16368674 -0.29767516 0.22415195 -0.11261541 0.12777612 0.02300437 0.1269481 -0.12386249 -0.28571677 0.23043905 -0.13716492 0.2048272 0.27843896 0.10840181 0.35419673 0.2523456 0.29506242 1.1108087 0.11497456 0.119004644 0.036341053 -0.18878049 0.08418806 0.60584337 -0.005736448 -0.0008381707 0.50771016 0.473905 -0.54194444 -0.07851467 0.049310826 0.18451269 -0.33660436 0.3982343 -0.07928032 -0.3424157 0.38687727 0.26618394 -0.16906664 0.049531817 -0.17559087 0.15974171 -0.16089308 -0.018327743 0.5136201 0.065109745 -0.34327626 -0.009541151 0.16591229 0.56424487 -0.07303796 -0.11678131 0.054614168 0.121326394 0.17629085 0.03758656 -0.20297323 -0.04691552 -0.40006655 0.19967338 -0.031996023 -0.025246225 -0.03619098
GACC 0.17494197 0.19242081 0.40159035 -0.030513346 0.02399472 0.24924444 0.24996658 0.53379637 -0.39762577 0.24682677 -0.5753397 -0.43305558 0.11113757 0.32448918 0.29049706 -0.17064184 0.33244994 0.4623805 -0.2622819 -0.033637434 0.18719293 0.11016545 -0.06830109 -0.310034 0.30562472 0.26104993 -0.27828225 -0.15719049 -0.5996677 -0.47315285 -0.19672449 -0.31567904 0.0811242 -0.16868374 -0.2837615 -0.06774935 -0.62433326 0.28280646 0.15161455 0.450673 -0.3875148 0.118641205 0.06627547 0.044233516 -0.12122774 -0.11916316 -0.096072115 -0.17114608 0.051993478 -0.19358075 -0.17449528 0.26634997 -0.23375489 -0.20847948 0.4686296 -0.3822409 0.17736955 -0.31927505 0.5197777 0.5545385 0.1712471 -0.49251768 0.032963023 0.3621761 0.12805685 -0.23400821 -0.20722032 0.088320315 0.00493547 0.15996306 0.40962327 0.032197304 -0.34159505 0.5798498 0.31163993 -0.061735407 -0.076853715 -0.69806284 0.13097246 -0.10196221 -0.68161684 0.59262794 -0.55911463 -0.10311831 -0.19945124 -0.44574583 0.033312254 -0.07982075 -0.20355204 -0.2662879 0.4871143 -0.7368623 -0.5514105 0.19918373 -0.18515587 -0.2517807 -0.37816465 -0.081360616 0.049801733 0.21417756
GCCC 0.30488548 0.22462028 0.47316322 -0.38023624 -0.08285456 0.20803368 0.21719691 -0.0967635 0.21090698 -0.09407355 0.09768245 -0.113079935 0.18334107 0.017645339 0.13722864 -0.31969598 0.25278655 0.27361655 0.0074657314 -0.12216647 -0.06143107 0.43746606 0.1616963 -0.18321154 0.18895216 0.037308738 0.21852636 -0.4679789 -0.53008235 -0.33671632 0.13109808 9.970822e-05 -0.30506885 0.04276924 0.100239076 0.17741863 -0.24882554 -0.4876451 -0.04603636 0.21295677 -0.54212195 0.13186507 0.22727673 0.12799223 -0.12483196 -0.48733303 0.1682387 -0.447865 0.37078944 0.16975494 -0.25856823 0.40438098 0.01637688 0.11269721 0.8288942 -0.19277383 0.13039944 -0.05925505 -0.17723778 0.029486405 -0.04509036 0.03599502 -0.35930339 0.20218669 0.2710919 -0.42582124 -0.098532915 0.19334412 0.12723632 -0.13211519 0.5749233 0.1946547 -0.51489323 0.0068613277 -0.012213571 -0.36796907 0.034933895 -0.14742558 -0.09138162 -0.336206 -0.44046426 0.07718341 -0.11492837 -0.47504508 -0.21911141 0.27725866 0.2547289 0.2369543 0.16675797 -0.38885775 0.17004012 -0.03494159 0.015414953 -0.2553663 0.0032990454 -0.051635806 0.37400547 0.10201366 -0.086472824 0.070299596
CAGCA 0.6178177 -0.05701486 0.46897414 -0.659716 -0.3688717 -0.43203223 0.41256285 0.05056198 -0.67016995 -0.09948686 -0.48021153 0.3128613 -0.10509267 -0.018602457 0.1222028 0.1464733 0.49114674 -0.7683513 -0.29920816 0.27935833 0.4372885 0.78235215 0.036665775 -0.28943014 0.13223903 -0.27387372 -0.11891311 0.019537974 -0.041209046 0.12462049 0.055070866 -0.12222199 -0.34502202 0.3546257 -0.38109472 0.28028134 0.21182074 -0.017125487 0.19832192 0.3069917 -0.20350799 0.21951635 -0.2470783 -0.05394314 -0.32889643 -0.3302122 0.22007509 0.31903958 -0.17480418 0.28826296 0.15699683 -0.041731402 -0.11736624 -0.119763896 0.7942677 -0.70949644 0.039360937 0.093389325 0.29442886 -0.124813795 0.5178666 -0.047567103 -0.1761133 0.029863926 0.40920058 0.113131836 -0.2485063 -0.41098487 0.17682329 -0.17571588 0.0981505 -0.031637825 0.033994038 0.24702841 -0.12562446 0.118413016 -0.18758097 -0.1574483 -0.09185232 -0.14399281 0.30182722 0.39683533 0.39359266 -0.02253175 0.14999487 0.09794302 0.14860524 -0.10808693 -0.5070153 -0.09240683 0.7420553 0.12971607 -0.030551411 0.28823495 -0.25411755 0.011527758 -0.074608155 0.08284152 -0.033982992 -0.40304354
ACCC 0.5430926 0.036420777 0.325384 -0.18691394 0.22532442 -0.19922511 0.595586 -0.40582836 -0.51364344 -0.3103494 -0.115963094 -0.04458341 -0.12346588 -0.50648993 0.45611495 -0.10033873 -0.2614728 0.3677937 0.05454056 0.008572375 0.19072707 0.51014733 -0.10792361 -0.4354017 0.23572516 0.07255413 0.23669653 -0.009911455 -0.3748477 -0.3276392 -0.05320395 -0.025492994 -0.18556847 0.08943714 0.02294342 0.12556155 -0.24451159 -0.24013095 -0.08469322 0.124075696 0.07823076 0.2837996 -0.11195917 0.027495898 -0.21409853 -0.4802677 -0.1582604 -0.3236589 -0.09604631 0.33044714 0.13811155 0.44613358 0.16778727 0.24683632 0.63764787 -0.40201995 0.17446977 -0.21345176 -0.2147597 -0.101009555 0.43824238 -0.18006514 0.051178254 0.5313905 0.31224078 -0.045107074 -0.5549715 0.29624772 0.24910949 -0.5182853 0.65015525 -0.17669845 -0.18843848 0.37685922 -0.05833334 -0.1901203 -0.1636068 -0.17753352 -0.047440197 0.04945172 -0.21839097 0.48870382 0.06729597 -0.21072736 -0.21457084 0.073620975 0.5140039 0.17385693 0.40837067 -0.058526367 0.2581393 0.07008112 -0.14222708 -0.44573793 0.019917212 -0.27452576 0.1462317 0.090738475 -0.23074844 -0.1315632
GGCC -0.25051895 0.35966507 0.23837478 0.20095512 -0.072451815 -0.3964141 0.7884619 0.3173597 0.01797991 -0.14349619 0.05933978 0.60011756 -0.009353646 0.18332036 -0.10775782 -0.34450424 -0.21986803 -0.03089494 0.2710634 -0.47405604 0.043409266 -0.15841138 0.06614532 -0.51491666 0.62496406 0.19376794 0.16960005 -0.028011885 -0.029097391 -0.16527493 -0.02632666 -0.3113229 -0.05784197 0.0053402646 0.2653284 0.44765037 0.090371534 0.043927472 0.4923663 -0.22868645 -0.40182194 -0.20600164 -0.09338317 0.26316163 -0.22383228 -0.13354877 -0.14023812 0.2820384 0.6428681 -0.015909707 -0.12922409 0.014103305 -0.15539183 0.33327997 0.5250998 -0.054156777 -0.1518551 -0.12835957 0.026451517 0.2719214 0.07983079 0.44222903 -0.15320483 0.2283203 0.49796328 -0.20454352 -0.06979622 0.38247868 0.56372666 -0.29933262 0.1405179 -0.037444975 -0.41869095 0.100813046 -0.052932292 -0.008535386 -0.37409633 -0.26359007 -0.05280917 0.11889774 -0.08015329 0.545531 -0.03694697 0.11828507 -0.26656076 0.52656054 0.04299237 0.4613874 -0.09812696 -0.22299469 -0.11305524 0.02484749 -0.13843237 0.12297678 0.0652224 -0.037367545 0.13900691 0.02471411 -0.28932464 0.13467677
AGAGA 0.3658805 0.5257845 0.05062592 -0.009261664 -0.054266613 -0.7296586 1.0419831 -0.20139915 -0.08889098 -0.2853055 -0.19612093 0.25071067 -0.2610987 -0.25172043 0.5328795 0.164354 -0.018567842 0.5229933 -0.014491714 -0.07896733 0.133135 0.405147 -0.39693692 -0.21769884 -0.03650302 0.25333717 -0.33337864 -0.036321558 -0.31749126 -0.03706793 -0.2987961 -0.6406143 0.08430268 0.40189236 0.061019655 0.27555346 -0.04506989 0.39471987 0.20386304 0.32998636 -0.49027184 0.45958298 0.13069826 0.19058304 0.15461181 0.5091143 0.096687876 0.050846793 -0.23598325 0.29240838 0.23788269 0.21360497 -0.23169503 0.33741474 0.18489209 -0.46558344 -0.07060846 -0.6071745 0.06232499 -0.40662426 0.014997688 0.14494431 -0.07185619 -0.13916169 -0.22326328 -0.25603756 -0.37724033 -0.19502994 -0.09545408 0.34860837 0.6519939 -0.05485552 -0.15211475 0.16983809 -0.01215934 0.6690164 0.06587912 -0.08733839 -0.56901544 -0.012187124 0.19584158 0.18592161 0.09742262 0.062471837 0.025878206 0.013586454 0.5325378 -0.63880193 -0.31557855 0.14544284 0.48538134 -0.07175268 -0.09258019 0.1764585 0.025380515 0.20634802 -0.1588405 0.23141621 -0.07864228 -0.16163027
CCAAA 0.2264234 0.96185684 -0.29552874 -0.21580096 -0.36590147 -0.39075616 0.042784315 0.43793237 -0.15146522 0.31292766 -0.32567844 -0.94290316 0.2724539 -0.4779459 -0.12345075 -0.008033089 0.13148637 0.15408784 -0.23384848 -0.16115272 0.21748365 0.46140116 0.37349883 -0.4823295 0.75820494 -0.04118801 -0.043657858 0.035511814 -0.36000687 -0.23070897 0.34980005 -0.88454586 0.13301466 -0.08082179 0.5612281 -0.2871873 -0.007296941 0.14031836 0.0641629 0.54217076 0.022616362 0.092021994 0.032252997 -0.06900603 0.46754354 0.098106556 0.5683679 -0.71156925 0.4225307 -0.033493835 0.24132213 0.3054499 -0.03491821 0.37696326 0.88091123 -0.18176812 -0.044553183 0.24463125 -0.29681563 -0.03986451 0.83007675 0.36028126 0.35922807 -0.0424641 0.600121 0.4381739 0.08409332 -0.21558309 -0.34369358 -0.28391066 0.48446143 -0.08887193 0.21593294 0.032012835 -0.19038586 0.31153253 0.5355114 0.0713516 -0.0034772668 0.38999197 0.43273193 0.30116737 0.45603967 0.16058539 0.32937628 -0.3394406 0.863971 -0.44043225 -0.64358336 -0.25468045 0.31860304 0.5352552 0.24442631 0.3548566 0.33094454 -0.18671174 0.09755087 -0.44106662 0.46922454 0.19868371
ACCG 0.40217596 0.080722496 0.58410305 0.006163426 0.2639646 -0.24766605 0.2786952 -0.21165712 -0.1892816 -0.28932446 -0.6947565 0.0857225 -0.45260456 -0.2870583 0.04835345 -0.12436949 0.035236146 -0.013894719 0.33706436 -0.05096008 0.075546525 0.4297499 -0.43784702 -0.2757849 0.035064008 0.11802718 -0.3675769 -0.08681296 -0.3637308 -0.11104254 0.009472815 0.56615216 -0.46973586 -0.07139245 -0.55354226 -0.027005272 -0.10011583 -0.02307524 0.3897469 -0.058622345 -0.11019464 0.63108414 0.43309608 -0.3644127 -0.25955397 -0.20662282 -0.16973639 0.14256206 0.30183825 0.20844473 0.026037678 0.09997986 0.075109705 0.05980975 0.28834632 -0.51355445 0.26857713 -0.46507862 0.1335994 -0.20410308 -0.15351725 -0.010655884 0.15916684 0.12068053 0.33955416 -0.035738915 -0.33422086 0.5139081 -0.19029316 -0.23108472 0.6267356 -0.35599977 -0.1691493 -0.17871189 0.044299033 -0.26173517 -0.3121376 -0.14722183 -0.28335378 0.43300015 -0.18487407 -0.2161979 0.25812182 -0.047553997 -0.159841 -0.30887875 0.39132178 -0.0047076503 0.53831 -0.01993789 0.36426133 -0.082040355 -0.6664537 -0.28105053 0.023691252 0.0072962963 0.03990965 0.30785882 0.2614433 -0.30005774
